{"learner":{"attributes":{},"feature_names":["minutes_per_game","goals_per90","assists_per90","xg_per90","take_ons_won_pct","passes_pct","aerials_won_pct","cards_yellow","cards_red","progressive_carries","progressive_passes","progressive_passes_received","sca","gca","passes_completed","assisted_shots","passes_into_final_third","passes_into_penalty_area","take_ons_won","take_ons_tackled","tackles_won","tackles","blocked_shots","blocked_passes","interceptions","clearances","errors","ball_recoveries","aerials_won","position_DF","position_DF,FW","position_DF,MF","position_FW","position_FW,DF","position_FW,MF","position_MF","position_MF,DF","position_MF,FW"],"feature_types":["float","float","float","float","float","float","float","float","float","float","float","float","float","float","float","float","float","float","float","float","float","float","float","float","float","float","float","float","float","float","float","float","float","float","float","float","float","float"],"gradient_booster":{"model":{"gbtree_model_param":{"num_parallel_tree":"1","num_trees":"100"},"iteration_indptr":[0,1,2,3,4,5,6,7,8,9,10,11,12,13,14,15,16,17,18,19,20,21,22,23,24,25,26,27,28,29,30,31,32,33,34,35,36,37,38,39,40,41,42,43,44,45,46,47,48,49,50,51,52,53,54,55,56,57,58,59,60,61,62,63,64,65,66,67,68,69,70,71,72,73,74,75,76,77,78,79,80,81,82,83,84,85,86,87,88,89,90,91,92,93,94,95,96,97,98,99,100],"tree_info":[0,0,0,0,0,0,0,0,0,0,0,0,0,0,0,0,0,0,0,0,0,0,0,0,0,0,0,0,0,0,0,0,0,0,0,0,0,0,0,0,0,0,0,0,0,0,0,0,0,0,0,0,0,0,0,0,0,0,0,0,0,0,0,0,0,0,0,0,0,0,0,0,0,0,0,0,0,0,0,0,0,0,0,0,0,0,0,0,0,0,0,0,0,0,0,0,0,0,0,0],"trees":[{"base_weights":[7.683311E-3,-4.0822816E-1,5.086783E-1,-6.615875E-1,-9.1365874E-2,-6.871443E-2,7.7607095E-1,-8.011851E-1,-4.36298E-1,-3.0370444E-1,1.8574493E-1,-3.7558094E-1,6.7082524E-2,3.0767414E-1,1.010607E0,-7.3556036E-1,-9.0252215E-1,-6.7669135E-1,-2.1483998E-1,-2.704937E-1,-5.8232784E-1,7.873702E-2,6.446325E-1,-6.4453536E-1,-2.191128E-1,-4.4391394E-2,4.3329132E-1,1.9783418E-1,8.519282E-1,7.307085E-1,1.5486157E0,-7.7398694E-1,-6.343176E-1,-9.164996E-1,-2.7194327E-1,-8.6472994E-1,-5.2524745E-1,-3.2522538E-1,2.2649714E-1,-3.5167986E-1,-1.8087608E-1,-6.5262806E-1,9.050596E-2,-2.1146346E-2,3.6150628E-1,8.226153E-2,8.8809913E-1,-6.622508E-1,-3.3903122E-4,-4.633341E-1,7.15672E-2,-1.17214836E-1,3.6722174E-1,-1.5695623E-1,6.643341E-1,-2.1584399E-2,4.4288632E-1,4.240937E-1,9.804032E-1,5.471263E-1,1.1697487E0,1.4226527E0,2.6882093E0,-8.355254E-2,-6.816205E-2,-6.501727E-2,-3.330518E-2,-9.304897E-2,-4.0000867E-2,-4.37196E-2,1.9453382E-2,-1.1222289E-1,-6.365361E-2,-6.756825E-2,-3.383146E-2,-4.3237332E-2,-8.106121E-3,-2.640306E-2,5.8828324E-2,-2.3715159E-2,-4.5569133E-2,-3.1142646E-2,-9.83174E-3,-6.86762E-2,-1.1650166E-2,-1.1754752E-3,1.2851112E-2,-2.662065E-2,5.149011E-3,4.1074776E-3,5.4475244E-2,-1.6573839E-2,1.8751046E-2,3.8014263E-2,1.17386594E-1,-6.8877764E-2,-1.4086311E-2,3.0502057E-2,-4.94002E-2,2.230848E-2,-2.2419978E-2,-4.6769466E-2,-6.6645197E-3,-2.722305E-2,4.584962E-2,-3.771323E-2,5.619542E-3,-1.8206207E-2,7.662669E-2,-2.1294545E-2,1.2621157E-2,1.4176418E-2,5.6661256E-2,-2.5548602E-2,7.108718E-2,1.0200161E-1,-8.4186075E-3,3.8203523E-2,1.01304166E-1,6.550741E-2,1.3417651E-1,1.2518683E-1,2.2964E-1,1.1534792E-1,2.9757687E-1],"categories":[],"categories_nodes":[],"categories_segments":[],"categories_sizes":[],"default_left":[0,0,0,0,0,0,0,0,0,0,0,0,0,0,0,0,0,0,0,0,0,0,0,0,0,0,0,0,0,0,0,0,0,0,0,0,0,0,0,0,0,0,0,0,0,0,0,0,0,0,0,0,0,0,0,0,0,0,0,0,0,0,0,0,0,0,0,0,0,0,0,0,0,0,0,0,0,0,0,0,0,0,0,0,0,0,0,0,0,0,0,0,0,0,0,0,0,0,0,0,0,0,0,0,0,0,0,0,0,0,0,0,0,0,0,0,0,0,0,0,0,0,0,0,0],"id":0,"left_children":[1,3,5,7,9,11,13,15,17,19,21,23,25,27,29,31,33,35,37,39,41,43,45,47,49,51,53,55,57,59,61,63,65,67,69,71,73,75,77,79,81,83,85,87,89,91,93,95,-1,97,99,101,103,105,107,109,111,113,115,117,119,121,123,-1,-1,-1,-1,-1,-1,-1,-1,-1,-1,-1,-1,-1,-1,-1,-1,-1,-1,-1,-1,-1,-1,-1,-1,-1,-1,-1,-1,-1,-1,-1,-1,-1,-1,-1,-1,-1,-1,-1,-1,-1,-1,-1,-1,-1,-1,-1,-1,-1,-1,-1,-1,-1,-1,-1,-1,-1,-1,-1,-1,-1,-1],"loss_changes":[4.8049954E2,1.0109236E2,1.615458E2,2.1665375E1,3.306639E1,1.3860145E1,7.8236084E1,2.2023926E0,1.4228626E1,2.7850285E0,1.1930766E1,4.1512184E0,9.4492855E0,1.417886E1,7.054819E1,5.477905E-1,1.2050476E0,3.2193756E0,6.9915023E0,2.0172443E0,1.6199789E0,5.6281896E0,6.225197E0,4.1800594E-1,4.718516E0,5.3786087E0,7.468384E0,1.0817128E1,1.7828617E0,2.4748993E1,1.9430176E1,5.0479126E-1,1.6081047E-1,7.911377E-1,4.704825E-1,2.5761986E0,1.8523808E0,2.9473839E0,5.301842E0,1.6668587E0,1.4567547E0,4.689951E-1,1.7056353E-2,2.6481516E0,3.030953E0,4.2260355E-1,4.1987915E0,4.0088272E-1,0E0,9.9897766E-1,1.4392464E0,2.6628234E0,1.7006893E0,7.7208734E-1,3.5042515E0,3.053092E0,3.4590607E0,2.325392E0,1.351017E0,1.684272E1,7.266037E0,1.9210144E1,3.1874008E0,0E0,0E0,0E0,0E0,0E0,0E0,0E0,0E0,0E0,0E0,0E0,0E0,0E0,0E0,0E0,0E0,0E0,0E0,0E0,0E0,0E0,0E0,0E0,0E0,0E0,0E0,0E0,0E0,0E0,0E0,0E0,0E0,0E0,0E0,0E0,0E0,0E0,0E0,0E0,0E0,0E0,0E0,0E0,0E0,0E0,0E0,0E0,0E0,0E0,0E0,0E0,0E0,0E0,0E0,0E0,0E0,0E0,0E0,0E0,0E0,0E0,0E0],"parents":[2147483647,0,0,1,1,2,2,3,3,4,4,5,5,6,6,7,7,8,8,9,9,10,10,11,11,12,12,13,13,14,14,15,15,16,16,17,17,18,18,19,19,20,20,21,21,22,22,23,23,24,24,25,25,26,26,27,27,28,28,29,29,30,30,31,31,32,32,33,33,34,34,35,35,36,36,37,37,38,38,39,39,40,40,41,41,42,42,43,43,44,44,45,45,46,46,47,47,49,49,50,50,51,51,52,52,53,53,54,54,55,55,56,56,57,57,58,58,59,59,60,60,61,61,62,62],"right_children":[2,4,6,8,10,12,14,16,18,20,22,24,26,28,30,32,34,36,38,40,42,44,46,48,50,52,54,56,58,60,62,64,66,68,70,72,74,76,78,80,82,84,86,88,90,92,94,96,-1,98,100,102,104,106,108,110,112,114,116,118,120,122,124,-1,-1,-1,-1,-1,-1,-1,-1,-1,-1,-1,-1,-1,-1,-1,-1,-1,-1,-1,-1,-1,-1,-1,-1,-1,-1,-1,-1,-1,-1,-1,-1,-1,-1,-1,-1,-1,-1,-1,-1,-1,-1,-1,-1,-1,-1,-1,-1,-1,-1,-1,-1,-1,-1,-1,-1,-1,-1,-1,-1,-1,-1],"split_conditions":[5.9095238E1,4.05E1,3E-2,3E-2,3E-2,2.3326135E0,7.1E1,2.4222221E1,7.7907413E-1,1.1508951E-1,1.6531397E0,4.31E1,8.3375E1,4.7182176E-1,2.9900333E-1,2.63E1,2.0422535E0,3.2616081E0,5.9080964E-1,5.0739703E0,7.291139E0,2.1417723E0,3.8714287E1,6.569343E-2,6.390532E-1,1.6100179E0,7.758621E-1,9.19708E-1,4.9723756E-1,2.013986E0,6.4E-1,8.01E1,6.788793E-1,7.291139E0,4.036842E1,3E-1,2.7E-1,2.0030699E0,4.3666668E1,3.4210526E1,4.379562E-1,3.7552157E-1,1E-2,7.356948E-1,3.0405405E1,4.15E1,1.9E-1,2.2600243E0,-3.3903122E-4,4.43E1,5.53E1,4.03E1,7.053292E-1,3.5667107E-1,3.91E1,3.91E1,4.09E1,2.6E-1,5.53E1,8.548E1,4.910105E0,2.0630372E0,9.4736844E-1,-8.355254E-2,-6.816205E-2,-6.501727E-2,-3.330518E-2,-9.304897E-2,-4.0000867E-2,-4.37196E-2,1.9453382E-2,-1.1222289E-1,-6.365361E-2,-6.756825E-2,-3.383146E-2,-4.3237332E-2,-8.106121E-3,-2.640306E-2,5.8828324E-2,-2.3715159E-2,-4.5569133E-2,-3.1142646E-2,-9.83174E-3,-6.86762E-2,-1.1650166E-2,-1.1754752E-3,1.2851112E-2,-2.662065E-2,5.149011E-3,4.1074776E-3,5.4475244E-2,-1.6573839E-2,1.8751046E-2,3.8014263E-2,1.17386594E-1,-6.8877764E-2,-1.4086311E-2,3.0502057E-2,-4.94002E-2,2.230848E-2,-2.2419978E-2,-4.6769466E-2,-6.6645197E-3,-2.722305E-2,4.584962E-2,-3.771323E-2,5.619542E-3,-1.8206207E-2,7.662669E-2,-2.1294545E-2,1.2621157E-2,1.4176418E-2,5.6661256E-2,-2.5548602E-2,7.108718E-2,1.0200161E-1,-8.4186075E-3,3.8203523E-2,1.01304166E-1,6.550741E-2,1.3417651E-1,1.2518683E-1,2.2964E-1,1.1534792E-1,2.9757687E-1],"split_indices":[0,6,1,1,1,16,0,0,17,26,15,6,0,13,13,4,24,27,13,27,10,21,0,8,9,20,20,20,20,21,1,5,13,10,0,1,1,21,0,0,15,26,3,21,14,4,1,16,0,6,6,6,11,17,6,6,6,1,4,0,27,17,15,0,0,0,0,0,0,0,0,0,0,0,0,0,0,0,0,0,0,0,0,0,0,0,0,0,0,0,0,0,0,0,0,0,0,0,0,0,0,0,0,0,0,0,0,0,0,0,0,0,0,0,0,0,0,0,0,0,0,0,0,0,0],"split_type":[0,0,0,0,0,0,0,0,0,0,0,0,0,0,0,0,0,0,0,0,0,0,0,0,0,0,0,0,0,0,0,0,0,0,0,0,0,0,0,0,0,0,0,0,0,0,0,0,0,0,0,0,0,0,0,0,0,0,0,0,0,0,0,0,0,0,0,0,0,0,0,0,0,0,0,0,0,0,0,0,0,0,0,0,0,0,0,0,0,0,0,0,0,0,0,0,0,0,0,0,0,0,0,0,0,0,0,0,0,0,0,0,0,0,0,0,0,0,0,0,0,0,0,0,0],"sum_hessian":[2.304E3,1.259E3,1.045E3,6.99E2,5.6E2,3.31E2,7.14E2,4.3E2,2.69E2,3.17E2,2.43E2,1.01E2,2.3E2,2.39E2,4.75E2,2.66E2,1.64E2,1.28E2,1.41E2,2.85E2,3.2E1,1.98E2,4.5E1,3.6E1,6.5E1,1.77E2,5.3E1,2E2,3.9E1,3.14E2,1.61E2,1.88E2,7.8E1,1.6E2,4E0,5.5E1,7.3E1,1.13E2,2.8E1,1.48E2,1.37E2,2.9E1,3E0,1.47E2,5.1E1,1.4E1,3.1E1,3.5E1,1E0,3.5E1,3E1,1.51E2,2.6E1,1.5E1,3.8E1,1.06E2,9.4E1,1E1,2.9E1,2.23E2,9.1E1,1.47E2,1.4E1,1.08E2,8E1,7.3E1,5E0,1.55E2,5E0,3E0,1E0,2.4E1,3.1E1,3.9E1,3.4E1,7.8E1,3.5E1,1.2E1,1.6E1,7.2E1,7.6E1,5.2E1,8.5E1,2.7E1,2E0,1E0,2E0,3.3E1,1.14E2,1.9E1,3.2E1,4E0,1E1,1.2E1,1.9E1,3.3E1,2E0,1E0,3.4E1,2E1,1E1,1.8E1,1.33E2,3E0,2.3E1,7E0,8E0,4E0,3.4E1,4.6E1,6E1,2.8E1,6.6E1,3E0,7E0,2.8E1,1E0,1.66E2,5.7E1,2.4E1,6.7E1,1.25E2,2.2E1,3E0,1.1E1],"tree_param":{"num_deleted":"0","num_feature":"38","num_nodes":"125","size_leaf_vector":"1"}},{"base_weights":[1.667403E-3,-3.6359203E-1,4.419401E-1,-5.143744E-1,-1.3982402E-1,-6.646544E-2,6.7042613E-1,-6.459646E-1,-3.5031393E-1,-4.2120254E-1,1.2373558E-2,-4.6386236E-1,4.288456E-2,3.0678397E-1,9.315494E-1,-7.3304117E-1,-5.6155366E-1,-3.9403343E-1,-7.978784E-2,-5.3790003E-1,-2.1983954E-1,-2.1334901E-1,2.1597166E-1,-6.1229086E-1,-3.22757E-1,-4.996974E-1,1.1471896E-1,6.821096E-2,6.014024E-1,7.0189583E-1,1.4960065E0,-8.177431E-1,-6.2166804E-1,-6.263092E-1,-3.7106794E-1,-4.4569135E-1,-2.3792334E-1,-1.4240596E-1,3.073191E-1,-7.140322E-1,-3.843413E-1,-3.2861978E-1,-1.1249145E-2,-3.7850702E-1,8.379964E-3,5.8084916E-2,7.1080416E-1,-7.3631845E-2,-3.913736E-1,-4.757479E-1,-1.2633665E-1,-5.260645E-1,1.324749E-2,5.129425E-3,5.319827E-1,-9.129285E-2,3.4949294E-1,5.271992E-1,1.2050728E0,1.04469106E-1,7.8847724E-1,1.186397E0,1.905732E0,-7.637341E-2,-1.001519E-1,-6.655397E-2,-3.7442334E-2,-6.6989325E-2,-5.0468124E-2,-4.8234727E-2,-1.23122595E-2,-4.7531396E-2,-1.8890565E-2,-2.739339E-2,5.2589895E-3,-2.6238425E-2,-5.8481456E-3,5.560541E-3,3.400038E-2,-7.784528E-2,-1.0113565E-2,-4.764596E-2,3.9189816E-3,-4.4937074E-2,-1.4608584E-2,-1.5616687E-2,2.9810715E-2,-6.263737E-2,-2.3095349E-2,-2.006354E-2,1.7867196E-2,-9.464982E-3,2.3451744E-2,2.1999417E-2,1.0357552E-1,-5.5506647E-2,-1.4838553E-2,-1.9959927E-2,-5.2898295E-2,7.8847E-3,-2.3549907E-2,-3.378781E-2,-5.9385456E-2,-1.43253775E-2,2.0547647E-2,1.613002E-2,1.0243391E-1,-4.0686026E-2,5.2981614E-3,-1.90369E-2,4.1184824E-2,2.056106E-2,7.059722E-2,3.220742E-2,1.2482208E-1,-4.5457124E-3,3.7544146E-2,6.0345586E-2,1.1054256E-1,-6.1205435E-3,1.3919252E-1,1.9536306E-1,-2.2064973E-2],"categories":[],"categories_nodes":[],"categories_segments":[],"categories_sizes":[],"default_left":[0,0,0,0,0,0,0,0,0,0,0,0,0,0,0,0,0,0,0,0,0,0,0,0,0,0,0,0,0,0,0,0,0,0,0,0,0,0,0,0,0,0,0,0,0,0,0,0,0,0,0,0,0,0,0,0,0,0,0,0,0,0,0,0,0,0,0,0,0,0,0,0,0,0,0,0,0,0,0,0,0,0,0,0,0,0,0,0,0,0,0,0,0,0,0,0,0,0,0,0,0,0,0,0,0,0,0,0,0,0,0,0,0,0,0,0,0,0,0,0,0,0,0],"id":1,"left_children":[1,3,5,7,9,11,13,15,17,19,21,23,25,27,29,31,33,35,37,39,41,43,45,47,49,51,53,55,57,59,61,63,65,67,69,71,73,75,77,79,81,83,85,87,89,91,93,-1,95,97,99,101,-1,103,105,107,109,111,113,115,117,119,121,-1,-1,-1,-1,-1,-1,-1,-1,-1,-1,-1,-1,-1,-1,-1,-1,-1,-1,-1,-1,-1,-1,-1,-1,-1,-1,-1,-1,-1,-1,-1,-1,-1,-1,-1,-1,-1,-1,-1,-1,-1,-1,-1,-1,-1,-1,-1,-1,-1,-1,-1,-1,-1,-1,-1,-1,-1,-1,-1,-1],"loss_changes":[3.695499E2,4.2305847E1,1.21087006E2,1.59653015E1,2.171755E1,1.4099426E1,6.798718E1,2.6387024E0,3.9425201E0,4.064493E0,1.5211783E1,1.2684622E0,9.996217E0,2.1185953E1,5.31351E1,1.387764E0,2.4196167E0,2.2245483E0,1.2072796E0,2.7547913E0,1.5165677E0,5.7525616E0,1.3552897E1,6.1601925E-1,1.0818162E0,5.6974745E-1,1.0331741E1,7.5693183E0,5.411911E0,1.5383728E1,1.2961639E1,3.368454E-1,7.378845E-1,5.047798E-1,1.5133104E0,1.5532532E0,7.885604E-1,4.0755832E-1,3.868425E-2,1.9349117E0,2.4375992E0,9.0416336E-1,1.1225034E0,3.1469593E0,2.4562156E0,3.606198E0,6.470686E0,0E0,4.7449207E-1,2.0313168E-1,4.217386E-1,1.6930771E-1,0E0,5.3805E0,8.412644E0,4.9386144E0,2.1318603E0,6.8687897E0,1.3137627E-1,1.601475E0,1.463855E1,1.829084E1,5.5236053E0,0E0,0E0,0E0,0E0,0E0,0E0,0E0,0E0,0E0,0E0,0E0,0E0,0E0,0E0,0E0,0E0,0E0,0E0,0E0,0E0,0E0,0E0,0E0,0E0,0E0,0E0,0E0,0E0,0E0,0E0,0E0,0E0,0E0,0E0,0E0,0E0,0E0,0E0,0E0,0E0,0E0,0E0,0E0,0E0,0E0,0E0,0E0,0E0,0E0,0E0,0E0,0E0,0E0,0E0,0E0,0E0,0E0,0E0,0E0,0E0],"parents":[2147483647,0,0,1,1,2,2,3,3,4,4,5,5,6,6,7,7,8,8,9,9,10,10,11,11,12,12,13,13,14,14,15,15,16,16,17,17,18,18,19,19,20,20,21,21,22,22,23,23,24,24,25,25,26,26,27,27,28,28,29,29,30,30,31,31,32,32,33,33,34,34,35,35,36,36,37,37,38,38,39,39,40,40,41,41,42,42,43,43,44,44,45,45,46,46,48,48,49,49,50,50,51,51,53,53,54,54,55,55,56,56,57,57,58,58,59,59,60,60,61,61,62,62],"right_children":[2,4,6,8,10,12,14,16,18,20,22,24,26,28,30,32,34,36,38,40,42,44,46,48,50,52,54,56,58,60,62,64,66,68,70,72,74,76,78,80,82,84,86,88,90,92,94,-1,96,98,100,102,-1,104,106,108,110,112,114,116,118,120,122,-1,-1,-1,-1,-1,-1,-1,-1,-1,-1,-1,-1,-1,-1,-1,-1,-1,-1,-1,-1,-1,-1,-1,-1,-1,-1,-1,-1,-1,-1,-1,-1,-1,-1,-1,-1,-1,-1,-1,-1,-1,-1,-1,-1,-1,-1,-1,-1,-1,-1,-1,-1,-1,-1,-1,-1,-1,-1,-1,-1],"split_conditions":[5.9095238E1,3E-2,3E-2,1.0426321E0,2.1706264E0,3.1369817E-2,7.3545456E1,7.84E1,5.9210525E0,3.8E-1,4.513793E1,1.3908564E0,2.356021E0,2.7480915E-1,3.2632342E-1,9.19708E-1,5E-1,2.5702248E0,4.0666668E1,8.360427E-1,2.8081122E-1,3.7E-1,3.8696256E0,4.909091E-1,1.5658658E0,9.07E1,8.3375E1,1.0682492E0,5.3E-1,6.161369E-1,2.8E-1,4.1158536E-1,7.9802954E-1,8.874281E-1,1.3043479E0,1.9320215E0,3.858839E-1,7.77E1,3.41E1,8.294931E-1,5.3666668E1,5.521472E-1,3.903125E1,5.5235904E-1,7.659575E-1,1.7307693E0,1.4855571E0,-7.3631845E-2,7.035714E1,6.7695656E1,1.749548E0,1.0309278E-1,1.324749E-2,1.942446E0,1.044712E0,4.6963948E-1,1.8867925E-1,2.4653465E1,1.16504855E-1,8.636842E1,8.448485E1,3.216301E0,6.54E1,-7.637341E-2,-1.001519E-1,-6.655397E-2,-3.7442334E-2,-6.6989325E-2,-5.0468124E-2,-4.8234727E-2,-1.23122595E-2,-4.7531396E-2,-1.8890565E-2,-2.739339E-2,5.2589895E-3,-2.6238425E-2,-5.8481456E-3,5.560541E-3,3.400038E-2,-7.784528E-2,-1.0113565E-2,-4.764596E-2,3.9189816E-3,-4.4937074E-2,-1.4608584E-2,-1.5616687E-2,2.9810715E-2,-6.263737E-2,-2.3095349E-2,-2.006354E-2,1.7867196E-2,-9.464982E-3,2.3451744E-2,2.1999417E-2,1.0357552E-1,-5.5506647E-2,-1.4838553E-2,-1.9959927E-2,-5.2898295E-2,7.8847E-3,-2.3549907E-2,-3.378781E-2,-5.9385456E-2,-1.43253775E-2,2.0547647E-2,1.613002E-2,1.0243391E-1,-4.0686026E-2,5.2981614E-3,-1.90369E-2,4.1184824E-2,2.056106E-2,7.059722E-2,3.220742E-2,1.2482208E-1,-4.5457124E-3,3.7544146E-2,6.0345586E-2,1.1054256E-1,-6.1205435E-3,1.3919252E-1,1.9536306E-1,-2.2064973E-2],"split_indices":[0,1,1,28,10,13,0,5,10,1,0,28,10,13,13,20,28,21,0,15,24,1,12,18,21,5,0,20,1,12,1,28,28,18,23,18,13,5,4,24,0,17,0,28,23,21,18,0,0,0,21,13,0,21,20,23,15,14,25,0,0,10,4,0,0,0,0,0,0,0,0,0,0,0,0,0,0,0,0,0,0,0,0,0,0,0,0,0,0,0,0,0,0,0,0,0,0,0,0,0,0,0,0,0,0,0,0,0,0,0,0,0,0,0,0,0,0,0,0,0,0,0,0],"split_type":[0,0,0,0,0,0,0,0,0,0,0,0,0,0,0,0,0,0,0,0,0,0,0,0,0,0,0,0,0,0,0,0,0,0,0,0,0,0,0,0,0,0,0,0,0,0,0,0,0,0,0,0,0,0,0,0,0,0,0,0,0,0,0,0,0,0,0,0,0,0,0,0,0,0,0,0,0,0,0,0,0,0,0,0,0,0,0,0,0,0,0,0,0,0,0,0,0,0,0,0,0,0,0,0,0,0,0,0,0,0,0,0,0,0,0,0,0,0,0,0,0,0,0],"sum_hessian":[2.296E3,1.255E3,1.041E3,7.49E2,5.06E2,3.23E2,7.18E2,4.14E2,3.35E2,1.77E2,3.29E2,6.9E1,2.54E2,3.01E2,4.17E2,2E2,2.14E2,2.88E2,4.7E1,1.11E2,6.6E1,1.56E2,1.73E2,3.2E1,3.7E1,2.9E1,2.25E2,1.67E2,1.34E2,2.98E2,1.19E2,1.1E2,9E1,1.58E2,5.6E1,2.15E2,7.3E1,4.1E1,6E0,5E1,6.1E1,4.3E1,2.3E1,8.9E1,6.7E1,1.32E2,4.1E1,1.9E1,1.3E1,2E1,1.7E1,2.8E1,1E0,1.79E2,4.6E1,1.07E2,6E1,1.21E2,1.3E1,3.8E1,2.6E2,7E1,4.9E1,8.9E1,2.1E1,7.5E1,1.5E1,1.13E2,4.5E1,3.8E1,1.8E1,1.92E2,2.3E1,6.5E1,8E0,1.6E1,2.5E1,1E0,5E0,4.5E1,5E0,5E1,1.1E1,2.5E1,1.8E1,1.6E1,7E0,3.2E1,5.7E1,3E1,3.7E1,7.1E1,6.1E1,1.7E1,2.4E1,7E0,6E0,4E0,1.6E1,6E0,1.1E1,9E0,1.9E1,1.03E2,7.6E1,2.7E1,1.9E1,3.3E1,7.4E1,6E0,5.4E1,4.4E1,7.7E1,1E0,1.2E1,2.5E1,1.3E1,1.66E2,9.4E1,1E1,6E1,4.8E1,1E0],"tree_param":{"num_deleted":"0","num_feature":"38","num_nodes":"123","size_leaf_vector":"1"}},{"base_weights":[-8.130159E-3,-3.543369E-1,3.070841E-1,-6.388388E-1,-1.09526604E-1,-6.941048E-2,5.281731E-1,-6.9195664E-1,-5.650576E-1,-2.211543E-1,8.131106E-2,-3.3566356E-1,3.5204446E-1,1.5123163E-1,7.290029E-1,-6.24873E-1,-7.768666E-1,-6.251931E-1,-3.8634282E-1,-1.9842152E-1,-5.142949E-1,-1.6616243E-1,2.1318905E-1,-5.910437E-1,-1.8843198E-1,7.424463E-2,7.6565516E-1,-1.4874691E-1,3.0036163E-1,6.894048E-1,2.0289247E0,-6.520743E-2,-4.954835E-1,-8.265828E-1,-5.786661E-1,-5.448479E-1,-7.026733E-1,-5.112625E-1,-2.0599514E-1,-2.5422013E-1,-1.0302056E-1,-5.559757E-1,-9.417375E-3,-4.3248367E-1,-7.6054394E-2,1.0162849E-1,4.5140558E-1,-7.325868E-1,-3.8150692E-1,-2.9318714E-1,6.9961585E-2,-3.3999275E-2,6.717111E-1,2.4603994E-1,9.307978E-1,-2.3785657E-1,2.110049E-1,-1.6850116E-2,4.2637303E-1,5.402377E-1,1.0845579E0,1.1669735E-1,2.3781228E0,-5.1211048E-2,1.8289567E-3,-8.543056E-2,-5.027358E-2,-4.6555948E-2,-1.0058445E-1,-5.9742313E-2,-4.263484E-2,-7.2494216E-2,-4.172032E-2,2.309243E-3,-5.464819E-2,-2.8412708E-3,-5.1854026E-2,-2.9604152E-2,-8.305787E-3,-2.01201E-2,2.452667E-3,-5.7380117E-2,-7.299447E-3,-4.2576315E-3,2.8450252E-3,-5.4803222E-2,-9.0789795E-3,-1.3542801E-2,2.622496E-2,2.2839304E-2,-6.582367E-3,6.9127517E-4,5.7820607E-2,-9.479653E-2,-4.6796825E-2,-4.9808756E-2,-1.3845593E-2,-3.2126036E-2,4.3920692E-2,1.3920379E-2,-5.9490748E-2,-5.719105E-2,6.5536993E-3,1.6937058E-1,1.899041E-2,4.7816705E-2,-1.8704074E-2,4.240234E-2,1.1442526E-1,-3.56888E-2,-1.250954E-2,1.1411977E-2,4.4008225E-2,-1.3383214E-2,3.3539213E-2,3.6925487E-2,9.8994896E-2,4.6489194E-2,1.0264309E-1,5.3078633E-2,1.22456804E-1,2.6677257E-1,9.096756E-2],"categories":[],"categories_nodes":[],"categories_segments":[],"categories_sizes":[],"default_left":[0,0,0,0,0,0,0,0,0,0,0,0,0,0,0,0,0,0,0,0,0,0,0,0,0,0,0,0,0,0,0,0,0,0,0,0,0,0,0,0,0,0,0,0,0,0,0,0,0,0,0,0,0,0,0,0,0,0,0,0,0,0,0,0,0,0,0,0,0,0,0,0,0,0,0,0,0,0,0,0,0,0,0,0,0,0,0,0,0,0,0,0,0,0,0,0,0,0,0,0,0,0,0,0,0,0,0,0,0,0,0,0,0,0,0,0,0,0,0,0,0,0,0],"id":2,"left_children":[1,3,5,7,9,11,13,15,17,19,21,23,25,27,29,31,33,35,37,39,41,43,45,47,49,51,53,55,57,59,61,-1,63,65,67,69,71,73,75,77,79,81,83,85,87,89,91,93,95,97,99,101,103,105,107,109,111,113,115,117,119,-1,121,-1,-1,-1,-1,-1,-1,-1,-1,-1,-1,-1,-1,-1,-1,-1,-1,-1,-1,-1,-1,-1,-1,-1,-1,-1,-1,-1,-1,-1,-1,-1,-1,-1,-1,-1,-1,-1,-1,-1,-1,-1,-1,-1,-1,-1,-1,-1,-1,-1,-1,-1,-1,-1,-1,-1,-1,-1,-1,-1,-1],"loss_changes":[2.4914189E2,7.570816E1,9.950704E1,1.5803223E0,1.2501404E1,4.9828827E1,5.6892654E1,1.155014E0,2.079834E0,2.3635979E0,7.1175017E0,1.0115833E1,1.9706125E1,1.1810192E1,2.3875244E1,2.611618E-1,7.33696E-1,6.1317825E-1,1.178834E0,1.8103285E0,5.418997E-1,1.7909319E0,3.7278552E0,2.656704E0,4.7303543E0,6.7487364E0,5.691921E0,2.8712368E0,7.042309E0,2.7589218E1,1.4386787E0,0E0,2.9126835E-1,4.3239594E-1,8.845873E-1,2.6239204E-1,1.9340515E-1,6.3366795E-1,1.3728302E0,1.5287504E0,1.6203557E0,1.6474104E-1,4.9782577E-3,7.0040655E-1,1.2005233E0,2.095279E0,2.5322886E0,2.8619843E0,1.1211076E0,2.6906195E0,2.4307005E0,4.8026905E0,7.5568256E0,1.8989725E0,5.1398277E0,9.083257E-1,3.4927332E-1,2.1463926E0,3.6904507E0,1.2307602E1,9.429382E0,0E0,1.4006271E0,0E0,0E0,0E0,0E0,0E0,0E0,0E0,0E0,0E0,0E0,0E0,0E0,0E0,0E0,0E0,0E0,0E0,0E0,0E0,0E0,0E0,0E0,0E0,0E0,0E0,0E0,0E0,0E0,0E0,0E0,0E0,0E0,0E0,0E0,0E0,0E0,0E0,0E0,0E0,0E0,0E0,0E0,0E0,0E0,0E0,0E0,0E0,0E0,0E0,0E0,0E0,0E0,0E0,0E0,0E0,0E0,0E0,0E0,0E0,0E0],"parents":[2147483647,0,0,1,1,2,2,3,3,4,4,5,5,6,6,7,7,8,8,9,9,10,10,11,11,12,12,13,13,14,14,15,15,16,16,17,17,18,18,19,19,20,20,21,21,22,22,23,23,24,24,25,25,26,26,27,27,28,28,29,29,30,30,32,32,33,33,34,34,35,35,36,36,37,37,38,38,39,39,40,40,41,41,42,42,43,43,44,44,45,45,46,46,47,47,48,48,49,49,50,50,51,51,52,52,53,53,54,54,55,55,56,56,57,57,58,58,59,59,60,60,62,62],"right_children":[2,4,6,8,10,12,14,16,18,20,22,24,26,28,30,32,34,36,38,40,42,44,46,48,50,52,54,56,58,60,62,-1,64,66,68,70,72,74,76,78,80,82,84,86,88,90,92,94,96,98,100,102,104,106,108,110,112,114,116,118,120,-1,122,-1,-1,-1,-1,-1,-1,-1,-1,-1,-1,-1,-1,-1,-1,-1,-1,-1,-1,-1,-1,-1,-1,-1,-1,-1,-1,-1,-1,-1,-1,-1,-1,-1,-1,-1,-1,-1,-1,-1,-1,-1,-1,-1,-1,-1,-1,-1,-1,-1,-1,-1,-1,-1,-1,-1,-1,-1,-1,-1,-1],"split_conditions":[3E-2,4.03E1,3.98E1,1.8222722E0,3E-2,3.6374134E-1,3E-2,1E1,3E-2,1.5202703E-1,1.5728155E0,3E-2,3.9731286E0,3.994083E0,8E-1,1.9077902E0,3.0136986E0,1E1,5.7132187E0,3.1130977E0,1.6289593E0,5.590062E-1,4.0072203E0,3E-1,1.1141678E0,2.7322404E-2,1.8E-1,1.0089686E0,2.5104603E-1,3.8274605E0,4.9920762E-1,-6.520743E-2,1.2690952E0,1.3851482E0,1.6687268E0,7.6045625E-2,6.6554623E0,1.8947369E0,6.352941E0,7.23E1,3.1369817E-2,3.7552157E-1,1E-2,3.2E-1,2.3446224E0,1.3E-1,4.76E1,4.260638E0,1.1780105E0,5.2E-1,6.923077E-2,8.7016577E-1,3.640777E-2,3.8E-1,2.4E-1,1.4102564E0,3.710733E0,3.7021277E0,2.9951885E0,1.6232466E0,8.278581E-1,1.1669735E-1,5.607477E-1,-5.1211048E-2,1.8289567E-3,-8.543056E-2,-5.027358E-2,-4.6555948E-2,-1.0058445E-1,-5.9742313E-2,-4.263484E-2,-7.2494216E-2,-4.172032E-2,2.309243E-3,-5.464819E-2,-2.8412708E-3,-5.1854026E-2,-2.9604152E-2,-8.305787E-3,-2.01201E-2,2.452667E-3,-5.7380117E-2,-7.299447E-3,-4.2576315E-3,2.8450252E-3,-5.4803222E-2,-9.0789795E-3,-1.3542801E-2,2.622496E-2,2.2839304E-2,-6.582367E-3,6.9127517E-4,5.7820607E-2,-9.479653E-2,-4.6796825E-2,-4.9808756E-2,-1.3845593E-2,-3.2126036E-2,4.3920692E-2,1.3920379E-2,-5.9490748E-2,-5.719105E-2,6.5536993E-3,1.6937058E-1,1.899041E-2,4.7816705E-2,-1.8704074E-2,4.240234E-2,1.1442526E-1,-3.56888E-2,-1.250954E-2,1.1411977E-2,4.4008225E-2,-1.3383214E-2,3.3539213E-2,3.6925487E-2,9.8994896E-2,4.6489194E-2,1.0264309E-1,5.3078633E-2,1.22456804E-1,2.6677257E-1,9.096756E-2],"split_indices":[1,6,6,21,2,13,2,6,2,26,21,2,12,27,1,18,9,6,27,16,23,24,16,1,17,26,2,20,22,16,17,0,20,24,21,18,11,21,11,6,13,26,3,2,28,2,6,27,18,1,8,15,26,1,1,16,27,16,21,17,20,0,20,0,0,0,0,0,0,0,0,0,0,0,0,0,0,0,0,0,0,0,0,0,0,0,0,0,0,0,0,0,0,0,0,0,0,0,0,0,0,0,0,0,0,0,0,0,0,0,0,0,0,0,0,0,0,0,0,0,0,0,0],"split_type":[0,0,0,0,0,0,0,0,0,0,0,0,0,0,0,0,0,0,0,0,0,0,0,0,0,0,0,0,0,0,0,0,0,0,0,0,0,0,0,0,0,0,0,0,0,0,0,0,0,0,0,0,0,0,0,0,0,0,0,0,0,0,0,0,0,0,0,0,0,0,0,0,0,0,0,0,0,0,0,0,0,0,0,0,0,0,0,0,0,0,0,0,0,0,0,0,0,0,0,0,0,0,0,0,0,0,0,0,0,0,0,0,0,0,0,0,0,0,0,0,0,0,0],"sum_hessian":[2.281E3,1.087E3,1.194E3,5.02E2,5.85E2,4.42E2,7.52E2,2.87E2,2.15E2,3.69E2,2.16E2,2.71E2,1.71E2,2.62E2,4.9E2,1.65E2,1.22E2,1.59E2,5.6E1,3.44E2,2.5E1,7.5E1,1.41E2,9.8E1,1.73E2,1.03E2,6.8E1,8.7E1,1.75E2,4.77E2,1.3E1,1.33E2,3.2E1,9.5E1,2.7E1,8.2E1,7.7E1,3.2E1,2.4E1,2.16E2,1.28E2,2.3E1,2E0,1.8E1,5.7E1,9.7E1,4.4E1,5.7E1,4.1E1,1.23E2,5E1,8.8E1,1.5E1,1.7E1,5.1E1,7E1,1.7E1,5E1,1.25E2,3.48E2,1.29E2,5E0,8E0,3.1E1,1E0,8.6E1,9E0,2.3E1,4E0,5.4E1,2.8E1,7E1,7E0,2E0,3E1,1.6E1,8E0,1.73E2,4.3E1,7.2E1,5.6E1,2.2E1,1E0,1E0,1E0,1.3E1,5E0,4.9E1,8E0,5.5E1,4.2E1,1E1,3.4E1,3E1,2.7E1,2.7E1,1.4E1,1.19E2,4E0,4.6E1,4E0,1.3E1,7.5E1,4E0,1.1E1,1.1E1,6E0,1.6E1,3.5E1,3.3E1,3.7E1,1.3E1,4E0,3.8E1,1.2E1,1.15E2,1E1,3.03E2,4.5E1,2.7E1,1.02E2,6E0,2E0],"tree_param":{"num_deleted":"0","num_feature":"38","num_nodes":"123","size_leaf_vector":"1"}},{"base_weights":[-1.1569208E-3,-2.2176439E-1,5.32114E-1,-4.258065E-1,-1.0413215E-2,2.6149723E-1,1.0435725E0,-5.250585E-1,-7.156257E-2,-2.0462625E-1,2.0445564E-1,-5.2673675E-2,4.5199028E-1,8.355486E-1,1.6398505E0,-5.684651E-1,-2.8090876E-1,-4.6587428E-1,1.8960376E-1,-2.7174398E-1,-6.056867E-2,7.230931E-2,4.0741575E-1,-1.9679967E-1,1.8317293E-1,-5.08974E-1,5.162856E-1,3.8331917E-1,1.0206095E0,5.507195E-1,1.8466624E0,-6.02155E-1,-3.8492188E-1,-4.8822635E-1,-1.8643333E-1,-6.4846116E-1,-3.2664546E-1,-1.0001132E-1,4.164474E-1,-1.6119267E-1,-3.3421558E-1,-1.8710978E-1,1.3739471E-1,-9.219419E-2,2.1054421E-1,3.5420063E-1,1.3210125E0,-5.6329817E-2,-1.20465145E-1,2.1583308E-3,5.903478E-1,-6.907119E-1,-1.954627E-1,4.1449258E-1,1.0708743E0,6.1994886E-1,-3.811729E-2,4.8866865E-1,1.2220458E0,7.8491634E-1,-5.535412E-2,1.923346E0,4.168669E-3,-6.30242E-2,-4.3892357E-2,-6.2518746E-2,-2.3217274E-2,-6.0917318E-2,-2.9784998E-2,-2.3976043E-2,-2.9378218E-4,-7.57388E-2,-2.980414E-2,-4.2213153E-2,-3.6838371E-3,-2.282446E-2,1.6233826E-2,1.0527211E-2,6.6237986E-2,-2.0771181E-2,-2.2523967E-3,-3.5414763E-2,5.000949E-3,-2.56897E-2,6.5156813E-3,-1.1025778E-2,2.2682954E-2,2.2242188E-3,-2.7974248E-2,6.758041E-3,3.4806944E-2,2.8795337E-2,7.538483E-2,2.8644133E-2,1.4278881E-1,-3.0399725E-2,5.7706097E-3,-3.720142E-2,1.3038439E-2,3.075777E-2,1.0715526E-1,-8.4834546E-2,-3.318825E-2,1.6871883E-2,-2.7159134E-2,2.33085E-2,6.1614033E-2,6.0328603E-2,1.2736656E-1,-2.2221183E-2,7.0861645E-2,-1.7539192E-2,4.0878497E-2,-1.6961595E-2,6.2597945E-2,9.8893814E-2,1.6552965E-1,9.748924E-2,1.433255E-2,5.1478148E-3,-1.0812426E-2,6.584174E-2,2.0233755E-1,2.7308274E-2,-2.6682973E-2],"categories":[],"categories_nodes":[],"categories_segments":[],"categories_sizes":[],"default_left":[0,0,0,0,0,0,0,0,0,0,0,0,0,0,0,0,0,0,0,0,0,0,0,0,0,0,0,0,0,0,0,0,0,0,0,0,0,0,0,0,0,0,0,0,0,0,0,0,0,0,0,0,0,0,0,0,0,0,0,0,0,0,0,0,0,0,0,0,0,0,0,0,0,0,0,0,0,0,0,0,0,0,0,0,0,0,0,0,0,0,0,0,0,0,0,0,0,0,0,0,0,0,0,0,0,0,0,0,0,0,0,0,0,0,0,0,0,0,0,0,0,0,0,0,0],"id":3,"left_children":[1,3,5,7,9,11,13,15,17,19,21,23,25,27,29,31,33,35,37,39,41,43,45,47,49,51,53,55,57,59,61,63,65,67,69,71,73,75,77,79,81,83,85,87,89,91,93,-1,95,97,99,101,103,105,107,109,111,113,115,117,119,121,123,-1,-1,-1,-1,-1,-1,-1,-1,-1,-1,-1,-1,-1,-1,-1,-1,-1,-1,-1,-1,-1,-1,-1,-1,-1,-1,-1,-1,-1,-1,-1,-1,-1,-1,-1,-1,-1,-1,-1,-1,-1,-1,-1,-1,-1,-1,-1,-1,-1,-1,-1,-1,-1,-1,-1,-1,-1,-1,-1,-1,-1,-1],"loss_changes":[2.7458044E2,7.1194176E1,9.4260666E1,2.9496338E1,3.3926865E1,2.683543E1,2.790329E1,6.7924194E0,1.9139807E1,4.1121273E0,1.0323227E1,5.8146243E0,1.7500927E1,1.4421913E1,1.2497711E1,3.2062683E0,1.8872066E0,1.669363E0,7.399751E0,1.9558659E0,3.4576273E0,5.363341E0,6.9219036E0,2.8976498E0,4.7895246E0,8.905754E-1,1.4346886E1,5.309023E0,1.27968445E1,1.6047938E0,7.0564575E0,1.8690033E0,3.1211805E0,5.323458E-1,6.940503E-1,9.575405E-1,1.2020411E0,1.7191503E0,4.75154E0,6.8555164E-1,1.4345112E0,1.4955568E0,1.2210424E0,2.3241556E0,2.493102E0,3.6218815E0,4.7555637E-1,0E0,2.9278553E0,2.2555234E0,2.391821E0,3.4064817E-1,2.6761967E-1,8.013821E0,3.0245247E0,2.6963224E0,1.2986642E0,3.360201E0,7.452469E0,8.3536863E-1,2.8116252E-2,4.741211E0,2.9149243E-1,0E0,0E0,0E0,0E0,0E0,0E0,0E0,0E0,0E0,0E0,0E0,0E0,0E0,0E0,0E0,0E0,0E0,0E0,0E0,0E0,0E0,0E0,0E0,0E0,0E0,0E0,0E0,0E0,0E0,0E0,0E0,0E0,0E0,0E0,0E0,0E0,0E0,0E0,0E0,0E0,0E0,0E0,0E0,0E0,0E0,0E0,0E0,0E0,0E0,0E0,0E0,0E0,0E0,0E0,0E0,0E0,0E0,0E0,0E0,0E0,0E0,0E0],"parents":[2147483647,0,0,1,1,2,2,3,3,4,4,5,5,6,6,7,7,8,8,9,9,10,10,11,11,12,12,13,13,14,14,15,15,16,16,17,17,18,18,19,19,20,20,21,21,22,22,23,23,24,24,25,25,26,26,27,27,28,28,29,29,30,30,31,31,32,32,33,33,34,34,35,35,36,36,37,37,38,38,39,39,40,40,41,41,42,42,43,43,44,44,45,45,46,46,48,48,49,49,50,50,51,51,52,52,53,53,54,54,55,55,56,56,57,57,58,58,59,59,60,60,61,61,62,62],"right_children":[2,4,6,8,10,12,14,16,18,20,22,24,26,28,30,32,34,36,38,40,42,44,46,48,50,52,54,56,58,60,62,64,66,68,70,72,74,76,78,80,82,84,86,88,90,92,94,-1,96,98,100,102,104,106,108,110,112,114,116,118,120,122,124,-1,-1,-1,-1,-1,-1,-1,-1,-1,-1,-1,-1,-1,-1,-1,-1,-1,-1,-1,-1,-1,-1,-1,-1,-1,-1,-1,-1,-1,-1,-1,-1,-1,-1,-1,-1,-1,-1,-1,-1,-1,-1,-1,-1,-1,-1,-1,-1,-1,-1,-1,-1,-1,-1,-1,-1,-1,-1,-1,-1,-1,-1],"split_conditions":[7.135714E1,4.03E1,1E-1,5.435294E1,3E-2,3E-2,5.0216985E-1,3.1E-1,2.263202E-1,1.4835165E0,8.794788E-1,3E-2,3.28E1,4.03E1,1.7E-1,3.3707866E-1,1.5773196E1,3.798165E0,1.6E-1,3.2090908E1,3E-2,7.659575E-1,5.4213395E0,4.03E1,1.1797752E0,3.146588E0,2.4324324E0,1.7453136E-1,3E-2,1.4195584E0,1.4232558E0,8.89E1,8.530806E-1,5.8E-1,4.232E1,3.8484848E0,2.022472E0,3.0813954E0,1.0626704E0,8.01E1,7.076336E1,4.821832E1,2.1686747E0,2.0708698E-1,3E-2,4.980712E1,4.56875E1,-5.6329817E-2,1.2064343E-1,4.265403E-1,8.7166664E1,2.7E-1,7.053292E-1,8.2190475E1,7.788461E1,8E-2,3.9915867E1,1.1180124E0,2.903226E0,6.428571E0,7.596296E1,7.103394E-2,7.596296E1,-6.30242E-2,-4.3892357E-2,-6.2518746E-2,-2.3217274E-2,-6.0917318E-2,-2.9784998E-2,-2.3976043E-2,-2.9378218E-4,-7.57388E-2,-2.980414E-2,-4.2213153E-2,-3.6838371E-3,-2.282446E-2,1.6233826E-2,1.0527211E-2,6.6237986E-2,-2.0771181E-2,-2.2523967E-3,-3.5414763E-2,5.000949E-3,-2.56897E-2,6.5156813E-3,-1.1025778E-2,2.2682954E-2,2.2242188E-3,-2.7974248E-2,6.758041E-3,3.4806944E-2,2.8795337E-2,7.538483E-2,2.8644133E-2,1.4278881E-1,-3.0399725E-2,5.7706097E-3,-3.720142E-2,1.3038439E-2,3.075777E-2,1.0715526E-1,-8.4834546E-2,-3.318825E-2,1.6871883E-2,-2.7159134E-2,2.33085E-2,6.1614033E-2,6.0328603E-2,1.2736656E-1,-2.2221183E-2,7.0861645E-2,-1.7539192E-2,4.0878497E-2,-1.6961595E-2,6.2597945E-2,9.8893814E-2,1.6552965E-1,9.748924E-2,1.433255E-2,5.1478148E-3,-1.0812426E-2,6.584174E-2,2.0233755E-1,2.7308274E-2,-2.6682973E-2],"split_indices":[0,6,2,0,1,1,13,1,13,20,17,2,6,6,1,13,14,11,1,0,2,20,12,6,24,10,21,22,1,18,25,5,18,1,0,10,21,9,21,5,14,14,16,7,2,14,0,0,18,23,0,1,11,0,0,1,14,12,12,10,0,24,0,0,0,0,0,0,0,0,0,0,0,0,0,0,0,0,0,0,0,0,0,0,0,0,0,0,0,0,0,0,0,0,0,0,0,0,0,0,0,0,0,0,0,0,0,0,0,0,0,0,0,0,0,0,0,0,0,0,0,0,0,0,0],"split_type":[0,0,0,0,0,0,0,0,0,0,0,0,0,0,0,0,0,0,0,0,0,0,0,0,0,0,0,0,0,0,0,0,0,0,0,0,0,0,0,0,0,0,0,0,0,0,0,0,0,0,0,0,0,0,0,0,0,0,0,0,0,0,0,0,0,0,0,0,0,0,0,0,0,0,0,0,0,0,0,0,0,0,0,0,0,0,0,0,0,0,0,0,0,0,0,0,0,0,0,0,0,0,0,0,0,0,0,0,0,0,0,0,0,0,0,0,0,0,0,0,0,0,0,0,0],"sum_hessian":[2.332E3,1.65E3,6.82E2,8.39E2,8.11E2,4.47E2,2.35E2,6.55E2,1.84E2,4.26E2,3.85E2,1.69E2,2.78E2,1.76E2,5.9E1,5.55E2,1E2,7.3E1,1.11E2,2.9E2,1.36E2,2.34E2,1.51E2,1.05E2,6.4E1,1.7E1,2.61E2,5.2E1,1.24E2,1E1,4.9E1,4.67E2,8.8E1,3E1,7E1,3E1,4.3E1,4.9E1,6.2E1,1.06E2,1.84E2,8.3E1,5.3E1,1.07E2,1.27E2,1.44E2,7E0,1.7E1,8.8E1,4.5E1,1.9E1,1E1,7E0,2.22E2,3.9E1,3.3E1,1.9E1,3.5E1,8.9E1,7E0,3E0,4.7E1,2E0,3.96E2,7.1E1,3.3E1,5.5E1,1.7E1,1.3E1,5.4E1,1.6E1,2.2E1,8E0,3.2E1,1.1E1,3.3E1,1.6E1,2.8E1,3.4E1,7.9E1,2.7E1,1.75E2,9E0,6.5E1,1.8E1,1.4E1,3.9E1,6.7E1,4E1,6.3E1,6.4E1,1.25E2,1.9E1,1E0,6E0,4.3E1,4.5E1,1.1E1,3.4E1,1.3E1,6E0,6E0,4E0,1E0,6E0,1.18E2,1.04E2,1.3E1,2.6E1,3E0,3E1,1.5E1,4E0,6E0,2.9E1,6E1,2.9E1,5E0,2E0,1E0,2E0,4E0,4.3E1,1E0,1E0],"tree_param":{"num_deleted":"0","num_feature":"38","num_nodes":"125","size_leaf_vector":"1"}},{"base_weights":[6.484201E-3,-2.544723E-1,3.8472694E-1,-3.7053928E-1,-6.828494E-2,-1.1741164E-2,5.7041717E-1,-4.6531084E-1,-2.695927E-1,-2.1482004E-1,1.252604E-1,-1.888806E-1,1.7379905E-1,3.438145E-1,8.776397E-1,-5.431543E-1,-3.6631888E-1,-2.9893604E-1,-5.0581302E-2,-4.19521E-1,-7.754731E-2,-1.5742972E-1,3.2684988E-1,-3.323593E-1,-4.1140843E-2,5.417274E-2,5.768241E-1,6.3872E-2,5.7931346E-1,6.302106E-1,1.2638462E0,-5.8661604E-1,-3.9516175E-1,-4.1980723E-1,-2.150896E-1,-3.237617E-1,-9.5461845E-2,-1.06537595E-1,2.5650644E-1,-5.8646387E-1,-3.1650865E-1,-2.1816891E-1,7.5141326E-2,-4.723526E-1,-7.358703E-2,-1.252075E-1,4.7579148E-1,-3.7392727E-1,-4.1400433E-2,-1.4520739E-1,1.9905919E-1,-4.276883E-2,4.4801337E-1,2.2447246E-1,8.775549E-1,-7.282627E-2,2.791876E-1,3.6587277E-1,8.8980675E-1,3.8470155E-1,8.465704E-1,4.6749454E-2,1.3364044E0,-5.008589E-2,-6.431201E-2,-4.6225864E-2,-1.2734494E-2,-4.350525E-2,-1.7353993E-2,-2.6202952E-2,1.9627802E-2,-3.559112E-2,-1.9018266E-2,-4.148322E-2,6.763268E-3,-1.5141502E-2,7.982323E-3,-8.375025E-3,3.1707887E-2,-6.2156178E-2,-1.8136855E-2,-4.0725134E-2,-1.4316427E-2,-3.2562904E-2,1.4188368E-3,9.6274394E-4,5.851869E-2,-1.263278E-2,-5.509633E-2,-1.5684227E-2,3.9044905E-2,9.47493E-3,-3.038444E-2,3.131287E-2,8.688464E-2,-4.013781E-2,-1.1444241E-2,2.389831E-2,-3.1488385E-2,-3.3849176E-2,-9.473327E-3,-2.699869E-2,3.7040718E-2,-2.1578038E-2,7.848509E-3,1.4013953E-2,6.028701E-2,-1.3763735E-2,4.344994E-2,7.4533224E-3,1.0331904E-1,-5.431834E-2,-1.2646144E-3,1.106166E-2,3.973766E-2,1.0918207E-2,5.092729E-2,3.450137E-2,1.0066259E-1,3.152012E-2,1.20092265E-1,5.5152636E-2,1.1493727E-1,-6.2498022E-2,7.067918E-2,9.0102576E-2,1.5280382E-1],"categories":[],"categories_nodes":[],"categories_segments":[],"categories_sizes":[],"default_left":[0,0,0,0,0,0,0,0,0,0,0,0,0,0,0,0,0,0,0,0,0,0,0,0,0,0,0,0,0,0,0,0,0,0,0,0,0,0,0,0,0,0,0,0,0,0,0,0,0,0,0,0,0,0,0,0,0,0,0,0,0,0,0,0,0,0,0,0,0,0,0,0,0,0,0,0,0,0,0,0,0,0,0,0,0,0,0,0,0,0,0,0,0,0,0,0,0,0,0,0,0,0,0,0,0,0,0,0,0,0,0,0,0,0,0,0,0,0,0,0,0,0,0,0,0,0,0],"id":4,"left_children":[1,3,5,7,9,11,13,15,17,19,21,23,25,27,29,31,33,35,37,39,41,43,45,47,49,51,53,55,57,59,61,63,65,67,69,71,73,75,77,79,81,83,85,87,89,91,93,95,97,99,101,103,105,107,109,111,113,115,117,119,121,123,125,-1,-1,-1,-1,-1,-1,-1,-1,-1,-1,-1,-1,-1,-1,-1,-1,-1,-1,-1,-1,-1,-1,-1,-1,-1,-1,-1,-1,-1,-1,-1,-1,-1,-1,-1,-1,-1,-1,-1,-1,-1,-1,-1,-1,-1,-1,-1,-1,-1,-1,-1,-1,-1,-1,-1,-1,-1,-1,-1,-1,-1,-1,-1,-1],"loss_changes":[2.296855E2,2.9731949E1,6.994594E1,7.987259E0,1.5058336E1,1.0024239E1,4.4740753E1,3.1607895E0,2.6390324E0,8.453627E0,1.3101561E1,3.293138E0,7.1524E0,2.4619389E1,2.5386597E1,1.3247452E0,1.4870586E0,1.8077927E0,8.865022E-1,1.8952351E0,3.9241736E0,2.5000231E0,9.081812E0,9.3999004E-1,1.9786543E0,4.447986E0,3.405755E0,5.0828547E0,1.3127632E1,8.651306E0,9.298447E0,5.7432175E-1,9.833746E-1,4.6138382E-1,1.0748377E0,1.3237343E0,2.163646E0,3.7171236E-1,1.9143677E-1,5.270786E-1,1.1528854E0,2.3766885E0,2.9348924E0,4.744234E-1,3.0360136E0,1.3647307E0,6.1854134E0,4.4555664E-1,9.187346E-1,5.045059E-1,2.0288875E0,1.9888983E0,1.0120697E0,1.3527012E0,2.1726084E0,2.9935825E0,1.2909002E0,4.435154E0,4.8713684E0,4.216407E0,7.3173523E0,3.5453207E0,6.966522E0,0E0,0E0,0E0,0E0,0E0,0E0,0E0,0E0,0E0,0E0,0E0,0E0,0E0,0E0,0E0,0E0,0E0,0E0,0E0,0E0,0E0,0E0,0E0,0E0,0E0,0E0,0E0,0E0,0E0,0E0,0E0,0E0,0E0,0E0,0E0,0E0,0E0,0E0,0E0,0E0,0E0,0E0,0E0,0E0,0E0,0E0,0E0,0E0,0E0,0E0,0E0,0E0,0E0,0E0,0E0,0E0,0E0,0E0,0E0,0E0,0E0,0E0,0E0,0E0],"parents":[2147483647,0,0,1,1,2,2,3,3,4,4,5,5,6,6,7,7,8,8,9,9,10,10,11,11,12,12,13,13,14,14,15,15,16,16,17,17,18,18,19,19,20,20,21,21,22,22,23,23,24,24,25,25,26,26,27,27,28,28,29,29,30,30,31,31,32,32,33,33,34,34,35,35,36,36,37,37,38,38,39,39,40,40,41,41,42,42,43,43,44,44,45,45,46,46,47,47,48,48,49,49,50,50,51,51,52,52,53,53,54,54,55,55,56,56,57,57,58,58,59,59,60,60,61,61,62,62],"right_children":[2,4,6,8,10,12,14,16,18,20,22,24,26,28,30,32,34,36,38,40,42,44,46,48,50,52,54,56,58,60,62,64,66,68,70,72,74,76,78,80,82,84,86,88,90,92,94,96,98,100,102,104,106,108,110,112,114,116,118,120,122,124,126,-1,-1,-1,-1,-1,-1,-1,-1,-1,-1,-1,-1,-1,-1,-1,-1,-1,-1,-1,-1,-1,-1,-1,-1,-1,-1,-1,-1,-1,-1,-1,-1,-1,-1,-1,-1,-1,-1,-1,-1,-1,-1,-1,-1,-1,-1,-1,-1,-1,-1,-1,-1,-1,-1,-1,-1,-1,-1,-1,-1,-1,-1,-1,-1],"split_conditions":[6.2827587E1,3E-2,3E-2,1.0514019E0,1.7E-1,3E-2,2.6444662E-1,8.04E1,5.334133E1,2.9142857E1,4.4933334E1,4.017526E1,8.428571E1,7.7567566E1,7.9E1,1.5291262E0,4.248927E-1,3.6E-1,4.9666668E1,1.903987E1,5.104762E1,3.3665836E-1,4.709987E-1,1.6943203E0,8.428571E1,4.4502616E0,1.044712E0,1.0416666E0,1.096857E0,1.7E-1,3E-2,6.67E1,3E-2,5.4E-1,4.1E-1,1.4242653E0,1.1515749E0,5.2208835E-1,8.52E1,2.0549684E0,7.4800533E-1,2.6019273E0,1.8284425E0,5.916187E-1,5.8E-1,1.0669828E-1,1.6232466E0,1.0124547E0,3.930131E-1,1.0055866E0,5.9710497E-1,6.3380283E-1,4.5198677E1,2.0626432E-1,2.721774E0,2.284264E-1,2.013986E0,2.2031824E-1,2.5775657E0,1.5384616E0,7.1E1,7.99E1,1.1E-1,-5.008589E-2,-6.431201E-2,-4.6225864E-2,-1.2734494E-2,-4.350525E-2,-1.7353993E-2,-2.6202952E-2,1.9627802E-2,-3.559112E-2,-1.9018266E-2,-4.148322E-2,6.763268E-3,-1.5141502E-2,7.982323E-3,-8.375025E-3,3.1707887E-2,-6.2156178E-2,-1.8136855E-2,-4.0725134E-2,-1.4316427E-2,-3.2562904E-2,1.4188368E-3,9.6274394E-4,5.851869E-2,-1.263278E-2,-5.509633E-2,-1.5684227E-2,3.9044905E-2,9.47493E-3,-3.038444E-2,3.131287E-2,8.688464E-2,-4.013781E-2,-1.1444241E-2,2.389831E-2,-3.1488385E-2,-3.3849176E-2,-9.473327E-3,-2.699869E-2,3.7040718E-2,-2.1578038E-2,7.848509E-3,1.4013953E-2,6.028701E-2,-1.3763735E-2,4.344994E-2,7.4533224E-3,1.0331904E-1,-5.431834E-2,-1.2646144E-3,1.106166E-2,3.973766E-2,1.0918207E-2,5.092729E-2,3.450137E-2,1.0066259E-1,3.152012E-2,1.20092265E-1,5.5152636E-2,1.1493727E-1,-6.2498022E-2,7.067918E-2,9.0102576E-2,1.5280382E-1],"split_indices":[0,2,1,28,1,2,13,5,14,14,0,14,0,0,0,20,28,1,0,14,0,25,20,20,0,16,20,20,20,2,2,5,1,1,1,24,10,18,5,18,24,21,20,16,1,7,17,22,7,28,20,23,14,11,10,20,21,15,10,20,0,5,1,0,0,0,0,0,0,0,0,0,0,0,0,0,0,0,0,0,0,0,0,0,0,0,0,0,0,0,0,0,0,0,0,0,0,0,0,0,0,0,0,0,0,0,0,0,0,0,0,0,0,0,0,0,0,0,0,0,0,0,0,0,0,0,0],"split_type":[0,0,0,0,0,0,0,0,0,0,0,0,0,0,0,0,0,0,0,0,0,0,0,0,0,0,0,0,0,0,0,0,0,0,0,0,0,0,0,0,0,0,0,0,0,0,0,0,0,0,0,0,0,0,0,0,0,0,0,0,0,0,0,0,0,0,0,0,0,0,0,0,0,0,0,0,0,0,0,0,0,0,0,0,0,0,0,0,0,0,0,0,0,0,0,0,0,0,0,0,0,0,0,0,0,0,0,0,0,0,0,0,0,0,0,0,0,0,0,0,0,0,0,0,0,0,0],"sum_hessian":[2.325E3,1.376E3,9.49E2,8.47E2,5.29E2,3.03E2,6.46E2,4.35E2,4.12E2,3.01E2,2.28E2,1.55E2,1.48E2,3.73E2,2.73E2,2.41E2,1.94E2,3.63E2,4.9E1,1.2E2,1.81E2,9.5E1,1.33E2,7.8E1,7.7E1,1.15E2,3.3E1,1.71E2,2.02E2,1.68E2,1.05E2,1.84E2,5.7E1,1.42E2,5.2E1,3.23E2,4E1,4.2E1,7E0,4.4E1,7.6E1,9.4E1,8.7E1,1.9E1,7.6E1,3.3E1,1E2,6.8E1,1E1,5.4E1,2.3E1,9.3E1,2.2E1,1.6E1,1.7E1,1.05E2,6.6E1,1.21E2,8.1E1,8E1,8.8E1,6E0,9.9E1,7.7E1,1.07E2,4.5E1,1.2E1,1.33E2,9E0,4.7E1,5E0,2.59E2,6.4E1,1.3E1,2.7E1,3.4E1,8E0,1E0,6E0,4E1,4E0,4.9E1,2.7E1,6.4E1,3E1,7.8E1,9E0,4E0,1.5E1,6.5E1,1.1E1,1.5E1,1.8E1,7.2E1,2.8E1,6.1E1,7E0,5E0,5E0,1E1,4.4E1,6E0,1.7E1,3.8E1,5.5E1,8E0,1.4E1,6E0,1E1,3E0,1.4E1,1.1E1,9.4E1,2.8E1,3.8E1,4.4E1,7.7E1,1.5E1,6.6E1,7.5E1,5E0,4.6E1,4.2E1,3E0,3E0,3.2E1,6.7E1],"tree_param":{"num_deleted":"0","num_feature":"38","num_nodes":"127","size_leaf_vector":"1"}},{"base_weights":[5.935647E-3,-1.9736585E-1,3.87714E-1,-3.7749267E-1,-1.1211816E-2,1.7505133E-1,7.3263824E-1,-4.5101705E-1,-1.69846E-1,-1.5115294E-1,1.5617746E-1,-6.201532E-3,3.5560957E-1,4.6676818E-1,1.0461092E0,-4.784773E-1,-2.4764478E-1,-2.7874085E-1,3.1318793E-1,-2.310954E-1,-6.395041E-2,5.0006967E-2,3.4480616E-1,-4.2116246E-1,6.945117E-2,2.293158E-1,7.83644E-1,3.7918997E-1,1.3406249E0,7.961805E-1,1.6162703E0,-5.282004E-1,-3.926196E-1,-3.067256E-1,6.347295E-2,-6.4085025E-1,-2.0432799E-1,-2.930689E-1,4.139259E-1,-1.0710028E-1,-2.9233876E-1,-9.190632E-2,1.0117023E-1,6.0625556E-3,4.2613682E-1,1.3525411E-1,5.625816E-1,-4.84437E-1,-1.1541915E-1,-1.3394968E-1,2.3295562E-1,-2.2673474E-1,3.1310046E-1,4.8792303E-1,1.1174682E0,2.8630608E-1,8.742518E-1,2.3894072E-1,1.4917347E0,6.293509E-1,1.4320314E0,9.035685E-1,1.8107531E0,-4.4895045E-2,-6.1459083E-2,-4.1024074E-2,-7.1785017E-3,-1.41487885E-2,-3.758181E-2,-1.5787018E-2,1.5479512E-2,3.5505057E-3,-6.672154E-2,-3.0626167E-2,-3.1224394E-3,-3.6604684E-2,3.591037E-3,1.9223087E-2,6.3746236E-2,-7.2487877E-3,-3.1444844E-2,-4.978831E-2,-2.2554198E-2,-1.3363448E-2,7.2614726E-4,-9.986011E-3,2.2956988E-2,-1.2282444E-2,1.4709609E-2,2.981917E-2,5.9203018E-2,3.8721338E-2,2.0266576E-3,8.371336E-2,2.9618813E-2,-5.8250606E-2,-2.7244627E-2,2.1734953E-2,-3.5855025E-2,-2.4035813E-2,5.8372417E-3,-2.25446E-2,3.2783926E-2,-1.5446044E-2,-6.759713E-2,2.5149718E-2,7.502295E-2,2.2638641E-2,7.692387E-2,1.2369374E-1,-2.1077506E-2,-5.091049E-4,4.8186485E-2,2.247223E-2,9.929215E-2,3.2778528E-2,3.062582E-3,6.668091E-2,1.6725317E-1,-2.7512899E-2,6.9247626E-2,1.5421267E-1,-3.2989025E-2,7.3480727E-3,1.2056663E-1,1.1952281E-1,1.966127E-1],"categories":[],"categories_nodes":[],"categories_segments":[],"categories_sizes":[],"default_left":[0,0,0,0,0,0,0,0,0,0,0,0,0,0,0,0,0,0,0,0,0,0,0,0,0,0,0,0,0,0,0,0,0,0,0,0,0,0,0,0,0,0,0,0,0,0,0,0,0,0,0,0,0,0,0,0,0,0,0,0,0,0,0,0,0,0,0,0,0,0,0,0,0,0,0,0,0,0,0,0,0,0,0,0,0,0,0,0,0,0,0,0,0,0,0,0,0,0,0,0,0,0,0,0,0,0,0,0,0,0,0,0,0,0,0,0,0,0,0,0,0,0,0,0,0,0,0],"id":5,"left_children":[1,3,5,7,9,11,13,15,17,19,21,23,25,27,29,31,33,35,37,39,41,43,45,47,49,51,53,55,57,59,61,63,65,67,69,71,73,75,77,79,81,83,85,87,89,91,93,95,97,99,101,103,105,107,109,111,113,115,117,119,121,123,125,-1,-1,-1,-1,-1,-1,-1,-1,-1,-1,-1,-1,-1,-1,-1,-1,-1,-1,-1,-1,-1,-1,-1,-1,-1,-1,-1,-1,-1,-1,-1,-1,-1,-1,-1,-1,-1,-1,-1,-1,-1,-1,-1,-1,-1,-1,-1,-1,-1,-1,-1,-1,-1,-1,-1,-1,-1,-1,-1,-1,-1,-1,-1,-1],"loss_changes":[1.8115489E2,5.106398E1,5.9360634E1,1.1740135E1,1.7592089E1,1.6463732E1,2.5264572E1,3.070343E0,1.081768E1,2.8364363E0,6.8319244E0,7.940265E0,1.3442936E1,1.2425354E1,1.8805603E1,1.9357147E0,1.3061447E0,4.368971E0,2.442086E0,1.5861855E0,9.1866934E-1,3.6337538E0,5.5370483E0,6.985707E-1,7.1481905E0,7.560156E0,5.0817337E0,6.877104E0,2.1406937E0,9.706619E0,4.1854095E0,1.8807068E0,1.0333996E0,6.2041044E-1,2.6699993E-1,5.2299213E-1,2.4607487E0,1.571942E-1,1.5128388E0,4.9393713E-1,1.8373232E0,7.0030737E-1,7.7147955E-1,3.6171894E0,3.1164217E-1,1.8463717E0,4.140383E0,5.0657034E-1,7.2518206E-1,1.9786409E0,5.249791E0,9.021052E-1,4.2814655E0,2.1802354E0,4.3865013E0,7.5245075E0,1.6267757E0,4.5484215E-2,8.236103E-1,4.8152657E0,4.388321E0,2.6698523E0,7.103958E-1,0E0,0E0,0E0,0E0,0E0,0E0,0E0,0E0,0E0,0E0,0E0,0E0,0E0,0E0,0E0,0E0,0E0,0E0,0E0,0E0,0E0,0E0,0E0,0E0,0E0,0E0,0E0,0E0,0E0,0E0,0E0,0E0,0E0,0E0,0E0,0E0,0E0,0E0,0E0,0E0,0E0,0E0,0E0,0E0,0E0,0E0,0E0,0E0,0E0,0E0,0E0,0E0,0E0,0E0,0E0,0E0,0E0,0E0,0E0,0E0,0E0,0E0,0E0,0E0],"parents":[2147483647,0,0,1,1,2,2,3,3,4,4,5,5,6,6,7,7,8,8,9,9,10,10,11,11,12,12,13,13,14,14,15,15,16,16,17,17,18,18,19,19,20,20,21,21,22,22,23,23,24,24,25,25,26,26,27,27,28,28,29,29,30,30,31,31,32,32,33,33,34,34,35,35,36,36,37,37,38,38,39,39,40,40,41,41,42,42,43,43,44,44,45,45,46,46,47,47,48,48,49,49,50,50,51,51,52,52,53,53,54,54,55,55,56,56,57,57,58,58,59,59,60,60,61,61,62,62],"right_children":[2,4,6,8,10,12,14,16,18,20,22,24,26,28,30,32,34,36,38,40,42,44,46,48,50,52,54,56,58,60,62,64,66,68,70,72,74,76,78,80,82,84,86,88,90,92,94,96,98,100,102,104,106,108,110,112,114,116,118,120,122,124,126,-1,-1,-1,-1,-1,-1,-1,-1,-1,-1,-1,-1,-1,-1,-1,-1,-1,-1,-1,-1,-1,-1,-1,-1,-1,-1,-1,-1,-1,-1,-1,-1,-1,-1,-1,-1,-1,-1,-1,-1,-1,-1,-1,-1,-1,-1,-1,-1,-1,-1,-1,-1,-1,-1,-1,-1,-1,-1,-1,-1,-1,-1,-1,-1],"split_conditions":[6.803226E1,4.03E1,1E-1,4.8741936E1,3E-2,3E-2,7.9E1,3.8E-1,3.6144578E0,1.192053E0,3.3488372E-1,4.03E1,8.636842E1,9.660108E0,5.200472E0,1.9159389E0,3.903125E1,3.2786885E-1,6.733167E-1,3.135E1,5.9666668E1,2.6938775E0,4.896E1,4.8280606E0,4.601227E0,6.7873305E-1,8.9596814E-1,5E-1,2E-1,7.1012006E0,1.4299065E0,1.6172507E-1,4.513793E1,2.1E1,1.82E1,4.9666668E1,1.7E-1,6.0833332E1,4.8387095E-1,2.6E-1,7.659575E-1,2.5702248E0,1.0682492E0,5.342857E1,3.4019318E-1,1.0061681E0,1.7560975E-1,5.794646E-1,9.89011E-1,1.6620209E0,3.1369817E-2,9E-2,2.6141078E0,8.863636E1,9.782609E-1,6.628478E-1,3.4367542E0,7.7361115E1,7.0054054E1,3.1369817E-2,8.863636E1,3.5E1,8.124138E1,-4.4895045E-2,-6.1459083E-2,-4.1024074E-2,-7.1785017E-3,-1.41487885E-2,-3.758181E-2,-1.5787018E-2,1.5479512E-2,3.5505057E-3,-6.672154E-2,-3.0626167E-2,-3.1224394E-3,-3.6604684E-2,3.591037E-3,1.9223087E-2,6.3746236E-2,-7.2487877E-3,-3.1444844E-2,-4.978831E-2,-2.2554198E-2,-1.3363448E-2,7.2614726E-4,-9.986011E-3,2.2956988E-2,-1.2282444E-2,1.4709609E-2,2.981917E-2,5.9203018E-2,3.8721338E-2,2.0266576E-3,8.371336E-2,2.9618813E-2,-5.8250606E-2,-2.7244627E-2,2.1734953E-2,-3.5855025E-2,-2.4035813E-2,5.8372417E-3,-2.25446E-2,3.2783926E-2,-1.5446044E-2,-6.759713E-2,2.5149718E-2,7.502295E-2,2.2638641E-2,7.692387E-2,1.2369374E-1,-2.1077506E-2,-5.091049E-4,4.8186485E-2,2.247223E-2,9.929215E-2,3.2778528E-2,3.062582E-3,6.668091E-2,1.6725317E-1,-2.7512899E-2,6.9247626E-2,1.5421267E-1,-3.2989025E-2,7.3480727E-3,1.2056663E-1,1.1952281E-1,1.966127E-1],"split_indices":[0,6,1,0,1,1,0,1,9,9,13,6,0,11,10,21,0,17,21,0,0,21,0,10,27,20,9,1,1,11,9,28,0,0,6,0,1,0,13,3,20,21,20,0,22,19,7,19,25,21,13,3,21,0,19,20,11,0,0,13,0,6,0,0,0,0,0,0,0,0,0,0,0,0,0,0,0,0,0,0,0,0,0,0,0,0,0,0,0,0,0,0,0,0,0,0,0,0,0,0,0,0,0,0,0,0,0,0,0,0,0,0,0,0,0,0,0,0,0,0,0,0,0,0,0,0,0],"split_type":[0,0,0,0,0,0,0,0,0,0,0,0,0,0,0,0,0,0,0,0,0,0,0,0,0,0,0,0,0,0,0,0,0,0,0,0,0,0,0,0,0,0,0,0,0,0,0,0,0,0,0,0,0,0,0,0,0,0,0,0,0,0,0,0,0,0,0,0,0,0,0,0,0,0,0,0,0,0,0,0,0,0,0,0,0,0,0,0,0,0,0,0,0,0,0,0,0,0,0,0,0,0,0,0,0,0,0,0,0,0,0,0,0,0,0,0,0,0,0,0,0,0,0,0,0,0,0],"sum_hessian":[2.332E3,1.522E3,8.1E2,7.73E2,7.49E2,5.02E2,3.08E2,5.7E2,2.03E2,4.08E2,3.41E2,2.51E2,2.51E2,1.68E2,1.4E2,5.01E2,6.9E1,1.66E2,3.7E1,2.12E2,1.96E2,2.19E2,1.22E2,3.8E1,2.13E2,1.95E2,5.6E1,1.54E2,1.4E1,9.9E1,4.1E1,3.14E2,1.87E2,5.8E1,1.1E1,2.7E1,1.39E2,5E0,3.2E1,7.1E1,1.41E2,1.68E2,2.8E1,1.97E2,2.2E1,6.3E1,5.9E1,3.1E1,7E0,9.5E1,1.18E2,3E1,1.65E2,3.1E1,2.5E1,1.31E2,2.3E1,2E0,1.2E1,8E1,1.9E1,1E1,3.1E1,1.67E2,1.47E2,1.77E2,1E1,1.8E1,4E1,3E0,8E0,1E0,2.6E1,8.7E1,5.2E1,4E0,1E0,1.7E1,1.5E1,6.2E1,9E0,3.3E1,1.08E2,1.18E2,5E1,1.1E1,1.7E1,1.03E2,9.4E1,1.4E1,8E0,1.9E1,4.4E1,2.8E1,3.1E1,2E1,1.1E1,3E0,4E0,6.1E1,3.4E1,2E1,9.8E1,2.7E1,3E0,1.46E2,1.9E1,1.7E1,1.4E1,2.3E1,2E0,5.3E1,7.8E1,4E0,1.9E1,1E0,1E0,3E0,9E0,5E0,7.5E1,1.8E1,1E0,3E0,7E0,8E0,2.3E1],"tree_param":{"num_deleted":"0","num_feature":"38","num_nodes":"127","size_leaf_vector":"1"}},{"base_weights":[-7.0828884E-3,-2.5103498E-1,2.4895442E-1,-3.8605413E-1,-6.918272E-2,-6.145115E-2,3.9103615E-1,-4.2113584E-1,-1.0539833E-1,-1.0347633E-1,2.940314E-1,-2.1968308E-1,8.7655246E-2,3.1672832E-1,9.469058E-1,-4.748885E-1,-3.308045E-1,-1.848945E-1,2.355122E-1,-2.1285462E-1,-4.8453394E-2,1.7707501E-1,8.8693315E-1,-4.40654E-1,-1.6246247E-1,-6.425944E-2,2.6534715E-1,1.5147516E-1,5.2511275E-1,5.3912866E-1,1.2561599E0,-5.120918E-1,-2.8843415E-1,-3.8366646E-1,-6.343433E-2,-1.5624474E-1,-5.684173E-2,7.425829E-2,6.6039585E-2,-8.95176E-2,-2.9194015E-1,-7.4439906E-2,1.2385908E-1,7.789835E-2,6.0515755E-1,1.0752916E-2,9.989123E-1,-4.004693E-3,-4.5125872E-1,-2.6468536E-1,-5.7918686E-2,-3.5824502E-1,-3.9973655E-3,-3.1021225E-1,3.4622458E-1,2.6598234E-2,3.3186027E-1,2.62906E-1,6.731948E-1,3.4962273E-1,9.2040116E-1,8.2434696E-1,1.7878975E0,-5.541423E-2,-4.0665906E-2,-3.2006294E-2,-1.3729888E-2,-4.0677153E-2,-1.2325152E-2,-2.699E-2,2.1963298E-2,-2.732932E-2,-4.5286953E-3,-1.177363E-3,5.103047E-2,-5.931309E-3,-5.1265478E-2,-3.1835523E-2,8.184038E-3,-1.3014446E-2,2.9543687E-3,-3.6328335E-3,4.3538686E-2,1.2420393E-2,-4.1112345E-2,7.003746E-2,1.6927719E-3,2.9033637E-2,1.0825602E-1,-3.4670267E-2,-5.4721534E-2,-3.123637E-2,-3.1606236E-3,-2.5567276E-2,8.819206E-3,-4.143007E-2,-7.2488785E-3,-2.543864E-2,1.0641131E-2,-5.0726462E-2,-6.1457874E-3,2.3868378E-2,6.3002765E-2,-2.8068224E-2,1.4822404E-2,1.0413715E-2,4.4364568E-2,-5.941234E-2,3.0893683E-2,1.2372336E-2,7.8991376E-2,1.6115634E-2,6.915932E-2,-6.906915E-3,1.0086127E-1,8.199829E-3,1.00651756E-1,1.8463795E-1,2.7988886E-2],"categories":[],"categories_nodes":[],"categories_segments":[],"categories_sizes":[],"default_left":[0,0,0,0,0,0,0,0,0,0,0,0,0,0,0,0,0,0,0,0,0,0,0,0,0,0,0,0,0,0,0,0,0,0,0,0,0,0,0,0,0,0,0,0,0,0,0,0,0,0,0,0,0,0,0,0,0,0,0,0,0,0,0,0,0,0,0,0,0,0,0,0,0,0,0,0,0,0,0,0,0,0,0,0,0,0,0,0,0,0,0,0,0,0,0,0,0,0,0,0,0,0,0,0,0,0,0,0,0,0,0,0,0,0,0,0,0,0,0],"id":6,"left_children":[1,3,5,7,9,11,13,15,17,19,21,23,25,27,29,31,33,35,37,39,41,43,45,47,49,51,53,55,57,59,61,63,65,67,69,71,-1,73,-1,75,77,79,81,83,85,-1,87,-1,89,91,93,95,97,99,101,103,105,107,109,111,113,115,117,-1,-1,-1,-1,-1,-1,-1,-1,-1,-1,-1,-1,-1,-1,-1,-1,-1,-1,-1,-1,-1,-1,-1,-1,-1,-1,-1,-1,-1,-1,-1,-1,-1,-1,-1,-1,-1,-1,-1,-1,-1,-1,-1,-1,-1,-1,-1,-1,-1,-1,-1,-1,-1,-1,-1,-1],"loss_changes":[1.4478424E2,2.911834E1,4.9904488E1,6.66066E0,6.34558E0,8.418504E0,3.1753136E1,2.7805176E0,2.1303287E0,2.782185E0,2.894067E0,2.115839E0,4.983949E0,2.3543694E1,1.0798485E1,2.4674377E0,3.2122803E0,6.0342145E-1,9.786723E-1,1.4857631E0,1.397338E0,1.5661794E0,5.035267E-1,1.3062E-1,1.4701307E0,1.7701861E0,4.064132E0,8.641133E0,1.1587929E1,2.6405964E0,1.0236313E1,1.1623383E0,2.6677036E-1,1.0990944E0,2.3385828E0,7.6686966E-1,0E0,4.5617503E-1,0E0,7.619934E-1,9.541559E-1,1.567782E0,2.0618327E0,7.7568495E-1,3.802111E-1,0E0,4.1318893E-2,0E0,1.5139627E-1,7.680249E-1,2.0451276E0,2.4227834E-1,2.3492596E0,5.080186E-1,2.1386538E0,8.562701E0,3.950409E0,4.5624743E0,1.2280075E1,1.7575932E0,1.20434E0,3.9744873E0,1.4234314E0,0E0,0E0,0E0,0E0,0E0,0E0,0E0,0E0,0E0,0E0,0E0,0E0,0E0,0E0,0E0,0E0,0E0,0E0,0E0,0E0,0E0,0E0,0E0,0E0,0E0,0E0,0E0,0E0,0E0,0E0,0E0,0E0,0E0,0E0,0E0,0E0,0E0,0E0,0E0,0E0,0E0,0E0,0E0,0E0,0E0,0E0,0E0,0E0,0E0,0E0,0E0,0E0,0E0,0E0,0E0,0E0],"parents":[2147483647,0,0,1,1,2,2,3,3,4,4,5,5,6,6,7,7,8,8,9,9,10,10,11,11,12,12,13,13,14,14,15,15,16,16,17,17,18,18,19,19,20,20,21,21,22,22,23,23,24,24,25,25,26,26,27,27,28,28,29,29,30,30,31,31,32,32,33,33,34,34,35,35,37,37,39,39,40,40,41,41,42,42,43,43,44,44,46,46,48,48,49,49,50,50,51,51,52,52,53,53,54,54,55,55,56,56,57,57,58,58,59,59,60,60,61,61,62,62],"right_children":[2,4,6,8,10,12,14,16,18,20,22,24,26,28,30,32,34,36,38,40,42,44,46,48,50,52,54,56,58,60,62,64,66,68,70,72,-1,74,-1,76,78,80,82,84,86,-1,88,-1,90,92,94,96,98,100,102,104,106,108,110,112,114,116,118,-1,-1,-1,-1,-1,-1,-1,-1,-1,-1,-1,-1,-1,-1,-1,-1,-1,-1,-1,-1,-1,-1,-1,-1,-1,-1,-1,-1,-1,-1,-1,-1,-1,-1,-1,-1,-1,-1,-1,-1,-1,-1,-1,-1,-1,-1,-1,-1,-1,-1,-1,-1,-1,-1,-1,-1],"split_conditions":[5.6607143E1,4.05E1,3E-2,4E-1,3.1E-1,3E-2,1.6744186E0,9.5238096E-1,4.56875E1,3.4388646E-1,4E-1,4.19E1,5.1377954E0,7.702702E1,7.4125E1,8.9E1,4.9689442E-1,1.15755625E-1,2.6E-1,2.4222221E1,3.6E-1,4.45E1,2.595E1,5.6833332E1,3.1369817E-2,3.7625417E-1,3.09E1,2.6509574E-1,3.6165327E-1,4.71E1,2.5E-1,5.3608246E0,1.25E1,2.8E-1,4.45E1,6.352941E0,-5.684173E-2,1.2625251E0,6.6039585E-2,2.793296E-2,3.6E-1,8E1,4.3333332E1,9.394572E-2,5E-1,1.0752916E-2,4.1E-1,-4.004693E-3,2.0165095E0,8.448485E1,7.168459E-2,1.1670481E0,4.39E1,8.7190527E-1,8.155173E1,4.03E1,8.251834E-1,4.14E1,3.46E1,4.945055E0,2.7645051E0,3.089245E-1,3.9011702E-2,-5.541423E-2,-4.0665906E-2,-3.2006294E-2,-1.3729888E-2,-4.0677153E-2,-1.2325152E-2,-2.699E-2,2.1963298E-2,-2.732932E-2,-4.5286953E-3,-1.177363E-3,5.103047E-2,-5.931309E-3,-5.1265478E-2,-3.1835523E-2,8.184038E-3,-1.3014446E-2,2.9543687E-3,-3.6328335E-3,4.3538686E-2,1.2420393E-2,-4.1112345E-2,7.003746E-2,1.6927719E-3,2.9033637E-2,1.0825602E-1,-3.4670267E-2,-5.4721534E-2,-3.123637E-2,-3.1606236E-3,-2.5567276E-2,8.819206E-3,-4.143007E-2,-7.2488785E-3,-2.543864E-2,1.0641131E-2,-5.0726462E-2,-6.1457874E-3,2.3868378E-2,6.3002765E-2,-2.8068224E-2,1.4822404E-2,1.0413715E-2,4.4364568E-2,-5.941234E-2,3.0893683E-2,1.2372336E-2,7.8991376E-2,1.6115634E-2,6.915932E-2,-6.906915E-3,1.0086127E-1,8.199829E-3,1.00651756E-1,1.8463795E-1,2.7988886E-2],"split_indices":[0,6,1,1,2,2,17,18,0,17,1,6,27,0,0,5,13,8,2,0,1,0,0,0,13,23,6,13,15,6,1,27,4,1,0,11,0,23,0,8,1,5,0,8,2,0,1,0,25,0,19,9,6,23,0,6,17,6,6,12,12,24,8,0,0,0,0,0,0,0,0,0,0,0,0,0,0,0,0,0,0,0,0,0,0,0,0,0,0,0,0,0,0,0,0,0,0,0,0,0,0,0,0,0,0,0,0,0,0,0,0,0,0,0,0,0,0,0,0],"split_type":[0,0,0,0,0,0,0,0,0,0,0,0,0,0,0,0,0,0,0,0,0,0,0,0,0,0,0,0,0,0,0,0,0,0,0,0,0,0,0,0,0,0,0,0,0,0,0,0,0,0,0,0,0,0,0,0,0,0,0,0,0,0,0,0,0,0,0,0,0,0,0,0,0,0,0,0,0,0,0,0,0,0,0,0,0,0,0,0,0,0,0,0,0,0,0,0,0,0,0,0,0,0,0,0,0,0,0,0,0,0,0,0,0,0,0,0,0,0,0],"sum_hessian":[2.316E3,1.186E3,1.13E3,6.8E2,5.06E2,3.55E2,7.75E2,6.04E2,7.6E1,4.63E2,4.3E1,1.72E2,1.83E2,6.85E2,9E1,3.76E2,2.28E2,6.2E1,1.4E1,1.54E2,3.09E2,3.7E1,6E0,3.4E1,1.38E2,9.9E1,8.4E1,3.83E2,3.02E2,4E1,5E1,3.12E2,6.4E1,1.9E2,3.8E1,5.9E1,3E0,1.1E1,3E0,6.1E1,9.3E1,2.69E2,4E1,3.1E1,6E0,1E0,5E0,1E0,3.3E1,6.9E1,6.9E1,1.6E1,8.3E1,1E1,7.4E1,2.27E2,1.56E2,1.1E2,1.92E2,2.8E1,1.2E1,2.9E1,2.1E1,2.2E2,9.2E1,5.2E1,1.2E1,1.74E2,1.6E1,2.2E1,1.6E1,2.8E1,3.1E1,1E1,1E0,5.8E1,3E0,8.7E1,6E0,1.75E2,9.4E1,2.7E1,1.3E1,2.9E1,2E0,5E0,1E0,1E0,4E0,1.8E1,1.5E1,5.7E1,1.2E1,2.9E1,4E1,1.3E1,3E0,2.5E1,5.8E1,5E0,5E0,5.5E1,1.9E1,6.4E1,1.63E2,5.2E1,1.04E2,5E0,1.05E2,3.4E1,1.58E2,1.9E1,9E0,1E0,1.1E1,6E0,2.3E1,2E1,1E0],"tree_param":{"num_deleted":"0","num_feature":"38","num_nodes":"119","size_leaf_vector":"1"}},{"base_weights":[1.7022316E-3,-2.0180194E-1,2.0537977E-1,-2.7912995E-1,-4.919035E-2,-5.6343906E-2,3.0900705E-1,-3.6415595E-1,-1.9684136E-1,-2.6060355E-1,1.1482885E-1,-3.5323852E-1,4.7677558E-2,1.09175995E-1,4.902971E-1,-3.8115963E-1,-2.5237566E-1,-2.2489321E-1,-2.6553346E-2,-3.5632083E-1,-1.1942378E-1,5.893755E-2,4.019634E-1,-5.068766E-1,-1.7224853E-1,-2.5200245E-1,9.692814E-2,5.273635E-3,7.709749E-1,4.431397E-1,1.0192726E0,-4.208943E-1,-3.22261E-1,-2.8737432E-1,-1.3435265E-1,-2.0628238E-1,-4.4100502E-1,-8.1821255E-2,1.3365154E-1,-5.475401E-1,-2.0767723E-1,-6.982866E-2,-4.1497117E-1,2.8897246E-2,6.498572E-1,5.6231403E-1,-1.4156781E-1,-1.3749565E-1,-5.5884635E-1,-3.3621737E-1,-7.477515E-2,6.1174665E-2,-3.189072E-1,-6.187185E-2,2.0369878E-1,-1.3772938E-1,1.1213814E-1,5.980327E-1,1.472117E0,4.6836424E-1,-2.9119706E-1,1.2907171E-1,1.237213E0,-3.7250474E-2,-5.2366223E-2,-3.575324E-2,-2.1026267E-2,-3.5247E-2,-2.2393536E-2,-2.201624E-2,1.3521231E-2,-2.3989076E-2,-9.598513E-3,-4.87059E-2,-6.59436E-3,-1.7269684E-2,4.7095548E-4,-7.7821733E-4,3.4709916E-2,-5.687805E-2,1.8289685E-2,-2.4551429E-2,2.5006581E-2,2.2233028E-2,-1.1105489E-2,-6.3482426E-2,-1.6259838E-2,-2.5218261E-2,7.83107E-3,2.1360226E-2,9.561407E-2,-2.334242E-3,6.608961E-2,1.4476299E-2,-3.088604E-2,-1.5932124E-2,-3.271103E-4,-6.919574E-2,-3.911374E-2,-5.445025E-2,-8.590507E-3,1.3081551E-2,-1.6822467E-2,3.6486354E-2,-2.5780786E-2,-3.831857E-2,-6.214823E-3,-2.5897501E-2,5.791862E-4,8.879296E-3,3.305304E-2,-2.1058684E-2,1.9657956E-2,6.5277754E-3,6.410952E-2,6.593082E-2,-2.4032593E-3,1.8846574E-1,-1.1869637E-2,4.3960642E-2,9.784036E-2,9.386889E-3,-3.6319714E-2,-3.0636622E-2,4.516077E-2,7.026535E-2,1.5942168E-1],"categories":[],"categories_nodes":[],"categories_segments":[],"categories_sizes":[],"default_left":[0,0,0,0,0,0,0,0,0,0,0,0,0,0,0,0,0,0,0,0,0,0,0,0,0,0,0,0,0,0,0,0,0,0,0,0,0,0,0,0,0,0,0,0,0,0,0,0,0,0,0,0,0,0,0,0,0,0,0,0,0,0,0,0,0,0,0,0,0,0,0,0,0,0,0,0,0,0,0,0,0,0,0,0,0,0,0,0,0,0,0,0,0,0,0,0,0,0,0,0,0,0,0,0,0,0,0,0,0,0,0,0,0,0,0,0,0,0,0,0,0,0,0,0,0,0,0],"id":7,"left_children":[1,3,5,7,9,11,13,15,17,19,21,23,25,27,29,31,33,35,37,39,41,43,45,47,49,51,53,55,57,59,61,63,65,67,69,71,73,75,77,79,81,83,85,87,89,91,93,95,97,99,101,103,105,107,109,111,113,115,117,119,121,123,125,-1,-1,-1,-1,-1,-1,-1,-1,-1,-1,-1,-1,-1,-1,-1,-1,-1,-1,-1,-1,-1,-1,-1,-1,-1,-1,-1,-1,-1,-1,-1,-1,-1,-1,-1,-1,-1,-1,-1,-1,-1,-1,-1,-1,-1,-1,-1,-1,-1,-1,-1,-1,-1,-1,-1,-1,-1,-1,-1,-1,-1,-1,-1,-1],"loss_changes":[9.653525E1,1.3734608E1,3.1587086E1,5.3367424E0,1.3657524E1,1.0239252E1,3.016011E1,6.241646E-1,1.8809013E0,2.281742E0,3.5390372E0,2.3040886E0,3.6552417E0,2.7363396E1,1.0449341E1,6.296463E-1,1.8031502E-1,1.2724934E0,5.1562434E-1,2.7854862E0,1.0117204E0,3.300734E0,3.2172065E0,8.0620575E-1,6.3014567E-1,7.528653E-1,3.607101E0,5.287716E0,5.6675034E0,7.60128E0,6.6306877E0,7.597313E-1,4.6206856E-1,8.6253405E-2,3.5360685E-1,1.1409435E0,4.1698122E-1,3.3894545E-1,4.5553157E-1,7.8667545E-1,1.0832541E0,7.7145684E-1,4.516282E-1,2.5059018E0,9.983256E-1,1.6320124E0,4.7582072E-1,1.9985542E-2,6.223068E-1,7.3526955E-1,5.4073983E-1,7.721647E-1,4.5480418E-1,1.1484587E0,1.8215103E0,3.6462185E0,4.866002E0,1.7311268E0,6.7864513E0,5.2902603E0,4.2223966E-1,1.2619125E0,4.2233315E0,0E0,0E0,0E0,0E0,0E0,0E0,0E0,0E0,0E0,0E0,0E0,0E0,0E0,0E0,0E0,0E0,0E0,0E0,0E0,0E0,0E0,0E0,0E0,0E0,0E0,0E0,0E0,0E0,0E0,0E0,0E0,0E0,0E0,0E0,0E0,0E0,0E0,0E0,0E0,0E0,0E0,0E0,0E0,0E0,0E0,0E0,0E0,0E0,0E0,0E0,0E0,0E0,0E0,0E0,0E0,0E0,0E0,0E0,0E0,0E0,0E0,0E0,0E0,0E0],"parents":[2147483647,0,0,1,1,2,2,3,3,4,4,5,5,6,6,7,7,8,8,9,9,10,10,11,11,12,12,13,13,14,14,15,15,16,16,17,17,18,18,19,19,20,20,21,21,22,22,23,23,24,24,25,25,26,26,27,27,28,28,29,29,30,30,31,31,32,32,33,33,34,34,35,35,36,36,37,37,38,38,39,39,40,40,41,41,42,42,43,43,44,44,45,45,46,46,47,47,48,48,49,49,50,50,51,51,52,52,53,53,54,54,55,55,56,56,57,57,58,58,59,59,60,60,61,61,62,62],"right_children":[2,4,6,8,10,12,14,16,18,20,22,24,26,28,30,32,34,36,38,40,42,44,46,48,50,52,54,56,58,60,62,64,66,68,70,72,74,76,78,80,82,84,86,88,90,92,94,96,98,100,102,104,106,108,110,112,114,116,118,120,122,124,126,-1,-1,-1,-1,-1,-1,-1,-1,-1,-1,-1,-1,-1,-1,-1,-1,-1,-1,-1,-1,-1,-1,-1,-1,-1,-1,-1,-1,-1,-1,-1,-1,-1,-1,-1,-1,-1,-1,-1,-1,-1,-1,-1,-1,-1,-1,-1,-1,-1,-1,-1,-1,-1,-1,-1,-1,-1,-1,-1,-1,-1,-1,-1,-1],"split_conditions":[3E-2,3E-2,3E-2,9.8150784E-1,6.9260365E-1,5.6842107E-1,2.8539474E1,2.3951879E0,5.659001E1,3.6E-1,2.6612904E0,1.5658658E0,5.3677934E-1,5.6E-1,7.606071E0,9.3709326E-1,1.7981073E0,1.3372956E-1,7.2680974E0,5.739796E-1,6.2E-1,7.6325088E0,1E-1,1.2517385E-1,5.9907836E-1,1.6157989E-1,4.93395E0,1.8435835E1,8.5E-1,6.923077E-2,2.631579E-1,1.04367994E-1,1.3043479E0,7.52E1,7.887818E-2,1.4242653E0,3.7552157E-1,8.85E1,3.1369817E-2,6.45933E0,4.6153846E0,3.2490975E-1,1.097561E0,6.561361E-1,4.2857143E-1,2.1082392E0,8.759124E-1,1E0,3.4110787E0,2.667231E0,1.0184836E-1,5E-2,2.630041E-1,5.1209104E-1,8.12E1,4.3E-1,1.4835165E0,5.2781954E0,2.4542268E-1,2.3773584E0,9.189189E-1,5.3571427E-1,1.2E-1,-3.7250474E-2,-5.2366223E-2,-3.575324E-2,-2.1026267E-2,-3.5247E-2,-2.2393536E-2,-2.201624E-2,1.3521231E-2,-2.3989076E-2,-9.598513E-3,-4.87059E-2,-6.59436E-3,-1.7269684E-2,4.7095548E-4,-7.7821733E-4,3.4709916E-2,-5.687805E-2,1.8289685E-2,-2.4551429E-2,2.5006581E-2,2.2233028E-2,-1.1105489E-2,-6.3482426E-2,-1.6259838E-2,-2.5218261E-2,7.83107E-3,2.1360226E-2,9.561407E-2,-2.334242E-3,6.608961E-2,1.4476299E-2,-3.088604E-2,-1.5932124E-2,-3.271103E-4,-6.919574E-2,-3.911374E-2,-5.445025E-2,-8.590507E-3,1.3081551E-2,-1.6822467E-2,3.6486354E-2,-2.5780786E-2,-3.831857E-2,-6.214823E-3,-2.5897501E-2,5.791862E-4,8.879296E-3,3.305304E-2,-2.1058684E-2,1.9657956E-2,6.5277754E-3,6.410952E-2,6.593082E-2,-2.4032593E-3,1.8846574E-1,-1.1869637E-2,4.3960642E-2,9.784036E-2,9.386889E-3,-3.6319714E-2,-3.0636622E-2,4.516077E-2,7.026535E-2,1.5942168E-1],"split_indices":[2,1,1,28,24,24,14,18,14,1,28,21,28,1,10,20,15,26,16,20,3,27,3,19,23,13,27,14,1,8,28,20,23,5,28,24,26,5,13,27,16,21,10,28,15,10,24,31,27,12,7,3,7,23,5,1,20,27,24,19,12,23,3,0,0,0,0,0,0,0,0,0,0,0,0,0,0,0,0,0,0,0,0,0,0,0,0,0,0,0,0,0,0,0,0,0,0,0,0,0,0,0,0,0,0,0,0,0,0,0,0,0,0,0,0,0,0,0,0,0,0,0,0,0,0,0,0],"split_type":[0,0,0,0,0,0,0,0,0,0,0,0,0,0,0,0,0,0,0,0,0,0,0,0,0,0,0,0,0,0,0,0,0,0,0,0,0,0,0,0,0,0,0,0,0,0,0,0,0,0,0,0,0,0,0,0,0,0,0,0,0,0,0,0,0,0,0,0,0,0,0,0,0,0,0,0,0,0,0,0,0,0,0,0,0,0,0,0,0,0,0,0,0,0,0,0,0,0,0,0,0,0,0,0,0,0,0,0,0,0,0,0,0,0,0,0,0,0,0,0,0,0,0,0,0,0,0],"sum_hessian":[2.327E3,1.164E3,1.163E3,7.72E2,3.92E2,3.3E2,8.33E2,3.78E2,3.94E2,1.71E2,2.21E2,8.5E1,2.45E2,3.97E2,4.36E2,3.26E2,5.2E1,3.38E2,5.6E1,1.01E2,7E1,1.86E2,3.5E1,4.5E1,4E1,3.4E1,2.11E2,3.44E2,5.3E1,4.02E2,3.4E1,1.91E2,1.35E2,3.9E1,1.3E1,3.13E2,2.5E1,4.2E1,1.4E1,4.3E1,5.8E1,6.1E1,9E0,1.78E2,8E0,2.7E1,8E0,6E0,3.9E1,1.4E1,2.6E1,6E0,2.8E1,8.5E1,1.26E2,1.47E2,1.97E2,4.4E1,9E0,3.89E2,1.3E1,7E0,2.7E1,1.33E2,5.8E1,1.01E2,3.4E1,1.7E1,2.2E1,1E1,3E0,2.39E2,7.4E1,2.2E1,3E0,2E1,2.2E1,9E0,5E0,4.2E1,1E0,5.4E1,4E0,7E0,5.4E1,4E0,5E0,2.6E1,1.52E2,4E0,4E0,4E0,2.3E1,3E0,5E0,5E0,1E0,2E1,1.9E1,7E0,7E0,8E0,1.8E1,3E0,3E0,2.2E1,6E0,2.1E1,6.4E1,6.7E1,5.9E1,1.21E2,2.6E1,1.82E2,1.5E1,4E1,4E0,7E0,2E0,3.7E2,1.9E1,2E0,1.1E1,3E0,4E0,1.2E1,1.5E1],"tree_param":{"num_deleted":"0","num_feature":"38","num_nodes":"127","size_leaf_vector":"1"}},{"base_weights":[-4.606095E-3,-1.9554648E-1,1.9000064E-1,-3.6628944E-1,-5.6266483E-2,-2.1804983E-2,3.165834E-1,-3.8301966E-1,-1.7932218E-1,-1.582314E-1,6.1716023E-3,-1.86149E-1,2.9585153E-1,6.802812E-2,4.3209884E-1,-3.602415E-1,-5.7216257E-1,-3.1465968E-1,-9.38029E-2,-2.4811335E-2,-2.0427896E-1,-9.458884E-2,1.21986166E-1,-3.8491154E-1,-8.098924E-2,1.8959016E-2,6.0016245E-1,-6.365992E-2,1.8005154E-1,3.5620806E-1,7.895055E-1,-3.1261435E-1,-4.1982237E-1,-8.3732873E-1,-4.563656E-1,-1.20423116E-1,-4.0965936E-1,-1.412064E-1,2.7227826E-2,-8.5661165E-2,9.525022E-2,-2.6178607E-1,-8.298471E-2,-7.1523644E-2,-3.158983E-1,2.3667763E-3,2.5088298E-1,-4.942718E-1,-4.580864E-2,-2.4994268E-1,8.953541E-3,-1.8987115E-1,2.678684E-1,3.302947E-1,9.4897634E-1,4.594487E-2,-8.335676E-2,2.2649986E-1,-2.3396866E-1,3.0736926E-1,8.3496857E-1,9.8766524E-1,3.50835E-1,-3.3959042E-2,-2.4730047E-2,-4.3621287E-2,-1.8378306E-2,-9.3126416E-2,-4.8199207E-2,-5.722785E-2,-2.250602E-2,-1.4606734E-2,-3.7541706E-3,-4.645725E-2,6.9736005E-3,-2.3910522E-3,-1.9814646E-2,9.820112E-3,-7.078988E-4,-7.061367E-3,-3.588281E-2,3.13519E-2,2.932832E-3,1.6539384E-2,-2.7753493E-2,-2.1586146E-2,-2.975995E-3,-1.0907951E-2,7.7671246E-3,-3.7110295E-2,1.2062884E-2,-2.182548E-2,6.173455E-3,-6.6412176E-4,3.613559E-2,-6.0224272E-2,-3.8744044E-2,-1.69446E-2,3.7395064E-2,-3.1010965E-2,7.3614293E-3,-8.112467E-3,3.0372856E-2,-2.7104799E-2,1.9915849E-2,4.1555725E-2,-1.5767833E-2,4.4794656E-2,-7.922073E-3,7.599735E-3,1.1205323E-1,-1.569673E-2,5.8000847E-3,1.345332E-3,3.078701E-2,-3.844885E-2,2.0082308E-2,8.825513E-3,4.1612547E-2,1.0679205E-1,3.759819E-2,7.849284E-2,1.3624972E-1,4.640029E-2,-1.4144771E-2],"categories":[],"categories_nodes":[],"categories_segments":[],"categories_sizes":[],"default_left":[0,0,0,0,0,0,0,0,0,0,0,0,0,0,0,0,0,0,0,0,0,0,0,0,0,0,0,0,0,0,0,0,0,0,0,0,0,0,0,0,0,0,0,0,0,0,0,0,0,0,0,0,0,0,0,0,0,0,0,0,0,0,0,0,0,0,0,0,0,0,0,0,0,0,0,0,0,0,0,0,0,0,0,0,0,0,0,0,0,0,0,0,0,0,0,0,0,0,0,0,0,0,0,0,0,0,0,0,0,0,0,0,0,0,0,0,0,0,0,0,0,0,0,0,0],"id":8,"left_children":[1,3,5,7,9,11,13,15,17,19,21,23,25,27,29,31,33,35,37,39,41,43,45,47,49,51,53,55,57,59,61,63,65,67,69,71,73,75,77,79,81,83,85,87,89,91,93,95,97,99,101,103,105,107,109,-1,111,113,115,117,119,121,123,-1,-1,-1,-1,-1,-1,-1,-1,-1,-1,-1,-1,-1,-1,-1,-1,-1,-1,-1,-1,-1,-1,-1,-1,-1,-1,-1,-1,-1,-1,-1,-1,-1,-1,-1,-1,-1,-1,-1,-1,-1,-1,-1,-1,-1,-1,-1,-1,-1,-1,-1,-1,-1,-1,-1,-1,-1,-1,-1,-1,-1,-1],"loss_changes":[8.605858E1,2.7779472E1,3.0759045E1,1.5735092E0,4.107366E0,2.2503202E1,2.05858E1,1.8661957E0,4.913125E-1,1.5001297E0,4.6910186E0,5.9049416E0,1.2375051E1,3.3897028E0,1.3009476E1,1.0946312E0,1.1531429E0,2.6435852E-1,1.7022589E-1,4.7572565E-1,1.247777E0,1.0748831E0,2.8826766E0,3.6116304E0,2.8439164E0,4.1052837E0,6.2759113E0,1.1304784E0,2.4375815E0,9.236481E0,7.0422745E0,3.4592438E-1,6.510353E-1,1.8440247E-2,8.632202E-1,9.394385E-3,3.2197356E-1,1.3551769E-1,2.2608973E-2,1.514124E-1,3.0735627E-1,8.733978E-1,4.1791597E-1,1.1066886E0,5.267321E-1,1.2970593E0,2.562851E0,6.2023354E-1,1.3608125E0,1.2882123E0,3.2906346E0,1.4119301E0,2.3280702E0,2.0108771E0,4.4077816E0,0E0,1.0808614E0,1.9374499E0,9.2799616E-1,8.780384E0,3.5545883E0,3.338089E0,1.6255286E0,0E0,0E0,0E0,0E0,0E0,0E0,0E0,0E0,0E0,0E0,0E0,0E0,0E0,0E0,0E0,0E0,0E0,0E0,0E0,0E0,0E0,0E0,0E0,0E0,0E0,0E0,0E0,0E0,0E0,0E0,0E0,0E0,0E0,0E0,0E0,0E0,0E0,0E0,0E0,0E0,0E0,0E0,0E0,0E0,0E0,0E0,0E0,0E0,0E0,0E0,0E0,0E0,0E0,0E0,0E0,0E0,0E0,0E0,0E0,0E0,0E0,0E0],"parents":[2147483647,0,0,1,1,2,2,3,3,4,4,5,5,6,6,7,7,8,8,9,9,10,10,11,11,12,12,13,13,14,14,15,15,16,16,17,17,18,18,19,19,20,20,21,21,22,22,23,23,24,24,25,25,26,26,27,27,28,28,29,29,30,30,31,31,32,32,33,33,34,34,35,35,36,36,37,37,38,38,39,39,40,40,41,41,42,42,43,43,44,44,45,45,46,46,47,47,48,48,49,49,50,50,51,51,52,52,53,53,54,54,56,56,57,57,58,58,59,59,60,60,61,61,62,62],"right_children":[2,4,6,8,10,12,14,16,18,20,22,24,26,28,30,32,34,36,38,40,42,44,46,48,50,52,54,56,58,60,62,64,66,68,70,72,74,76,78,80,82,84,86,88,90,92,94,96,98,100,102,104,106,108,110,-1,112,114,116,118,120,122,124,-1,-1,-1,-1,-1,-1,-1,-1,-1,-1,-1,-1,-1,-1,-1,-1,-1,-1,-1,-1,-1,-1,-1,-1,-1,-1,-1,-1,-1,-1,-1,-1,-1,-1,-1,-1,-1,-1,-1,-1,-1,-1,-1,-1,-1,-1,-1,-1,-1,-1,-1,-1,-1,-1,-1,-1,-1,-1,-1,-1,-1,-1],"split_conditions":[3E-2,4.03E1,4.03E1,4E-1,3.97E1,2.4E-1,3E-2,1.6E-1,1.7015625E1,1.2861736E-1,3E-2,3.0582523E0,1.5102975E0,1.8316832E0,5.392927E0,1E1,1.268021E1,1.08E1,2.195122E0,2.7073485E-1,1.3112583E0,1.3688213E-1,5.81E1,1.8652849E0,3E-2,2.7355623E-1,6.0565275E-1,4E-2,4.1860464E-1,5.6E-1,2.6086956E-1,8.59E1,3.165299E-1,1.8490849E0,2.8E-1,6.69E1,2.9126215E-1,5.667506E-2,7.2E1,3E-2,1.1440678E1,1.16504855E-1,2.0610688E0,2.7322404E-2,8.79E1,2.0874525E1,9.476707E-1,1.9530457E1,6.9536424E-1,5.4413002E1,2.1649485E0,5.2E-1,9.89011E-1,2.4128687E0,2.5E-1,4.594487E-2,5.1350325E-1,3.3540373E0,8.39E1,2.7792916E0,7.43E1,2E-1,4.1208792E-2,-3.3959042E-2,-2.4730047E-2,-4.3621287E-2,-1.8378306E-2,-9.3126416E-2,-4.8199207E-2,-5.722785E-2,-2.250602E-2,-1.4606734E-2,-3.7541706E-3,-4.645725E-2,6.9736005E-3,-2.3910522E-3,-1.9814646E-2,9.820112E-3,-7.078988E-4,-7.061367E-3,-3.588281E-2,3.13519E-2,2.932832E-3,1.6539384E-2,-2.7753493E-2,-2.1586146E-2,-2.975995E-3,-1.0907951E-2,7.7671246E-3,-3.7110295E-2,1.2062884E-2,-2.182548E-2,6.173455E-3,-6.6412176E-4,3.613559E-2,-6.0224272E-2,-3.8744044E-2,-1.69446E-2,3.7395064E-2,-3.1010965E-2,7.3614293E-3,-8.112467E-3,3.0372856E-2,-2.7104799E-2,1.9915849E-2,4.1555725E-2,-1.5767833E-2,4.4794656E-2,-7.922073E-3,7.599735E-3,1.1205323E-1,-1.569673E-2,5.8000847E-3,1.345332E-3,3.078701E-2,-3.844885E-2,2.0082308E-2,8.825513E-3,4.1612547E-2,1.0679205E-1,3.759819E-2,7.849284E-2,1.3624972E-1,4.640029E-2,-1.4144771E-2],"split_indices":[2,6,6,1,4,1,1,1,14,24,1,10,15,21,10,6,14,14,19,18,24,26,6,19,1,24,13,2,7,1,7,5,13,28,1,5,24,24,5,1,14,25,10,26,5,14,24,14,28,14,21,1,28,15,2,0,18,10,5,10,5,1,8,0,0,0,0,0,0,0,0,0,0,0,0,0,0,0,0,0,0,0,0,0,0,0,0,0,0,0,0,0,0,0,0,0,0,0,0,0,0,0,0,0,0,0,0,0,0,0,0,0,0,0,0,0,0,0,0,0,0,0,0,0,0],"split_type":[0,0,0,0,0,0,0,0,0,0,0,0,0,0,0,0,0,0,0,0,0,0,0,0,0,0,0,0,0,0,0,0,0,0,0,0,0,0,0,0,0,0,0,0,0,0,0,0,0,0,0,0,0,0,0,0,0,0,0,0,0,0,0,0,0,0,0,0,0,0,0,0,0,0,0,0,0,0,0,0,0,0,0,0,0,0,0,0,0,0,0,0,0,0,0,0,0,0,0,0,0,0,0,0,0,0,0,0,0,0,0,0,0,0,0,0,0,0,0,0,0,0,0,0,0],"sum_hessian":[2.314E3,1.168E3,1.146E3,5.24E2,6.44E2,4.29E2,7.17E2,4.8E2,4.4E1,2.44E2,4E2,2.83E2,1.46E2,2.28E2,4.89E2,4.31E2,4.9E1,1.6E1,2.8E1,6.3E1,1.81E2,2.14E2,1.86E2,9.7E1,1.86E2,7.7E1,6.9E1,1.05E2,1.23E2,4.05E2,8.4E1,2.43E2,1.88E2,1.3E1,3.6E1,6E0,1E1,2E1,8E0,4.2E1,2.1E1,1.22E2,5.9E1,1.95E2,1.9E1,9.7E1,8.9E1,7.3E1,2.4E1,6.4E1,1.22E2,4.2E1,3.5E1,4E1,2.9E1,3E0,1.02E2,1.11E2,1.2E1,3.69E2,3.6E1,5.7E1,2.7E1,1.69E2,7.4E1,1.75E2,1.3E1,9E0,4E0,2.3E1,1.3E1,4E0,2E0,9E0,1E0,7E0,1.3E1,2E0,6E0,4.1E1,1E0,4E0,1.7E1,4E0,1.18E2,1.6E1,4.3E1,1.56E2,3.9E1,1.7E1,2E0,2E1,7.7E1,2.7E1,6.2E1,3.4E1,3.9E1,1.9E1,5E0,5.4E1,1E1,9.4E1,2.8E1,3.5E1,7E0,2.6E1,9E0,3.1E1,9E0,5E0,2.4E1,6.7E1,3.5E1,3.1E1,8E1,9E0,3E0,1.23E2,2.46E2,2.3E1,1.3E1,3.9E1,1.8E1,2.2E1,5E0],"tree_param":{"num_deleted":"0","num_feature":"38","num_nodes":"125","size_leaf_vector":"1"}},{"base_weights":[9.807198E-4,-1.7125024E-1,1.5628643E-1,-3.2170045E-1,-4.916182E-2,-3.803766E-2,2.774644E-1,-3.4474823E-1,-2.1275833E-1,-1.4294305E-1,6.1036795E-3,-2.1774113E-1,1.6389322E-1,1.3006613E-1,4.095293E-1,-3.5959023E-1,-2.1581571E-1,-2.3766635E-1,5.290842E-3,-1.2016567E-1,-3.4661874E-1,-3.304192E-2,1.5380202E-1,-3.9990854E-1,-1.2644312E-1,5.4221738E-2,4.4886935E-1,4.046112E-3,3.6378032E-1,2.4329658E-1,5.262799E-1,-3.9109755E-1,-2.7168715E-1,-1.3498944E-1,-2.9791165E-2,-2.5143504E-1,-8.403993E-2,1.8669216E-1,-2.1344891E-1,-9.505925E-2,-2.9512095E-1,-3.8801014E-1,4.486354E-2,-1.5407677E-2,-3.4729105E-1,-1.3027772E-1,2.5066656E-1,-4.6037218E-1,-1.4164343E-1,-2.5678307E-1,-3.1079829E-2,-1.5909563E-1,1.584032E-1,-1.503978E-2,6.1414903E-1,-2.0214505E-1,9.8687045E-2,5.2019256E-1,1.05290204E-1,2.1292429E-1,6.8973744E-1,4.990528E-1,1.6516893E-1,-3.1686705E-2,-4.565132E-2,-3.3223588E-2,-2.0169398E-2,-1.6008569E-2,3.0513168E-3,-2.3154484E-2,-4.716548E-2,5.8335466E-3,-1.4122098E-2,-6.6919327E-3,3.3022773E-2,-2.6542425E-2,-2.7737618E-4,-1.4499259E-2,-8.170567E-5,-4.041545E-2,-5.6377463E-3,-4.073635E-2,-1.0148287E-3,9.640694E-3,-2.9111623E-3,-5.472796E-3,1.7669346E-2,-1.8261306E-2,-4.0554352E-2,3.991623E-3,-2.6124954E-2,3.8804617E-2,1.3419846E-2,-4.8964936E-2,-8.59921E-3,1.2157023E-2,-2.0672997E-2,-3.8838457E-2,-1.1408482E-2,-2.3708446E-2,6.026163E-3,4.6401057E-2,-1.9262942E-2,2.5774592E-3,4.5905083E-2,1.7351722E-2,-3.8964715E-2,4.860228E-2,1.3659662E-1,-1.13862185E-2,-3.77645E-2,4.5697195E-3,4.646817E-2,1.2999656E-2,6.944324E-2,-3.6239107E-3,4.5159277E-2,1.1247982E-2,3.4666788E-2,2.2450654E-2,7.779818E-2,3.8818374E-2,7.356235E-2],"categories":[],"categories_nodes":[],"categories_segments":[],"categories_sizes":[],"default_left":[0,0,0,0,0,0,0,0,0,0,0,0,0,0,0,0,0,0,0,0,0,0,0,0,0,0,0,0,0,0,0,0,0,0,0,0,0,0,0,0,0,0,0,0,0,0,0,0,0,0,0,0,0,0,0,0,0,0,0,0,0,0,0,0,0,0,0,0,0,0,0,0,0,0,0,0,0,0,0,0,0,0,0,0,0,0,0,0,0,0,0,0,0,0,0,0,0,0,0,0,0,0,0,0,0,0,0,0,0,0,0,0,0,0,0,0,0,0,0,0,0,0,0],"id":9,"left_children":[1,3,5,7,9,11,13,15,17,19,21,23,25,27,29,31,33,35,37,39,41,43,45,47,49,51,53,55,57,59,61,63,65,67,-1,69,71,73,75,77,79,81,83,85,87,89,91,93,95,97,99,101,103,105,107,109,111,113,115,117,119,121,-1,-1,-1,-1,-1,-1,-1,-1,-1,-1,-1,-1,-1,-1,-1,-1,-1,-1,-1,-1,-1,-1,-1,-1,-1,-1,-1,-1,-1,-1,-1,-1,-1,-1,-1,-1,-1,-1,-1,-1,-1,-1,-1,-1,-1,-1,-1,-1,-1,-1,-1,-1,-1,-1,-1,-1,-1,-1,-1,-1,-1],"loss_changes":[6.1601707E1,2.0042286E1,2.8526937E1,1.1544685E0,3.1313238E0,1.6945745E1,1.4468472E1,6.916733E-1,4.7920084E-1,9.9752903E-1,2.2079253E0,4.0574217E0,6.8514886E0,1.0424774E1,7.4992065E0,8.880234E-1,2.5174737E-1,1.4597273E-1,4.36646E-1,8.636236E-1,3.738954E-1,1.6681958E0,2.234037E0,1.2152729E0,2.0553403E0,3.580996E0,4.6863956E0,4.527712E0,4.9586735E0,2.0768833E0,6.223297E0,1.1275787E0,3.483143E-1,1.0456854E-1,0E0,2.0616674E-1,7.336758E-2,2.4051224E-1,5.4013312E-2,8.4222436E-1,6.2799096E-1,1.4212394E-1,1.4245357E-2,2.177516E0,7.942891E-2,4.7853097E-1,9.0794516E-1,6.8130684E-1,3.1637043E-1,1.2702432E0,1.8395133E0,1.1968226E0,4.2946115E0,1.2684028E0,3.6708488E0,1.0880358E0,3.062412E0,5.144779E0,2.3689394E0,2.0432467E0,2.3587847E-1,5.6420555E0,0E0,0E0,0E0,0E0,0E0,0E0,0E0,0E0,0E0,0E0,0E0,0E0,0E0,0E0,0E0,0E0,0E0,0E0,0E0,0E0,0E0,0E0,0E0,0E0,0E0,0E0,0E0,0E0,0E0,0E0,0E0,0E0,0E0,0E0,0E0,0E0,0E0,0E0,0E0,0E0,0E0,0E0,0E0,0E0,0E0,0E0,0E0,0E0,0E0,0E0,0E0,0E0,0E0,0E0,0E0,0E0,0E0,0E0,0E0,0E0,0E0],"parents":[2147483647,0,0,1,1,2,2,3,3,4,4,5,5,6,6,7,7,8,8,9,9,10,10,11,11,12,12,13,13,14,14,15,15,16,16,17,17,18,18,19,19,20,20,21,21,22,22,23,23,24,24,25,25,26,26,27,27,28,28,29,29,30,30,31,31,32,32,33,33,35,35,36,36,37,37,38,38,39,39,40,40,41,41,42,42,43,43,44,44,45,45,46,46,47,47,48,48,49,49,50,50,51,51,52,52,53,53,54,54,55,55,56,56,57,57,58,58,59,59,60,60,61,61],"right_children":[2,4,6,8,10,12,14,16,18,20,22,24,26,28,30,32,34,36,38,40,42,44,46,48,50,52,54,56,58,60,62,64,66,68,-1,70,72,74,76,78,80,82,84,86,88,90,92,94,96,98,100,102,104,106,108,110,112,114,116,118,120,122,-1,-1,-1,-1,-1,-1,-1,-1,-1,-1,-1,-1,-1,-1,-1,-1,-1,-1,-1,-1,-1,-1,-1,-1,-1,-1,-1,-1,-1,-1,-1,-1,-1,-1,-1,-1,-1,-1,-1,-1,-1,-1,-1,-1,-1,-1,-1,-1,-1,-1,-1,-1,-1,-1,-1,-1,-1,-1,-1,-1,-1],"split_conditions":[3E-2,4.03E1,4.03E1,8.81E1,2.769231E-1,1.026616E0,4.587473E0,2.0630372E0,2.92E1,1.3688213E-1,4.821832E1,7.985803E-1,4.1661196E0,3.3E-1,1.0775862E0,2.3709168E0,3.6E0,3.0252102E-1,1.7560975E-1,2.200489E-1,8.95E1,1.3372956E-1,1.1681088E0,1.942446E0,1.6933547E0,3.319808E-2,3.570012E-2,6.0515505E-1,1.8828452E-1,7.589189E1,5.4213395E0,9.966777E-2,6.0674155E-1,6.061578E0,-2.9791165E-2,3.570012E-2,9.03E1,1E-2,9.611651E-1,3.3802817E0,1.9062902E0,3.7552157E-1,7E-2,2.7322404E-2,1.6835018E-1,1.4516129E-1,3.180212E-1,4.036545E0,4E-2,1.2226816E0,3.319808E-2,1.0516067E0,2.4E-1,5.4600606E0,3.67E1,2.0905924E-1,1.2788632E0,3.570012E-2,3.1468532E0,2.7322404E-2,3.0821916E-1,4.821832E1,1.6516893E-1,-3.1686705E-2,-4.565132E-2,-3.3223588E-2,-2.0169398E-2,-1.6008569E-2,3.0513168E-3,-2.3154484E-2,-4.716548E-2,5.8335466E-3,-1.4122098E-2,-6.6919327E-3,3.3022773E-2,-2.6542425E-2,-2.7737618E-4,-1.4499259E-2,-8.170567E-5,-4.041545E-2,-5.6377463E-3,-4.073635E-2,-1.0148287E-3,9.640694E-3,-2.9111623E-3,-5.472796E-3,1.7669346E-2,-1.8261306E-2,-4.0554352E-2,3.991623E-3,-2.6124954E-2,3.8804617E-2,1.3419846E-2,-4.8964936E-2,-8.59921E-3,1.2157023E-2,-2.0672997E-2,-3.8838457E-2,-1.1408482E-2,-2.3708446E-2,6.026163E-3,4.6401057E-2,-1.9262942E-2,2.5774592E-3,4.5905083E-2,1.7351722E-2,-3.8964715E-2,4.860228E-2,1.3659662E-1,-1.13862185E-2,-3.77645E-2,4.5697195E-3,4.646817E-2,1.2999656E-2,6.944324E-2,-3.6239107E-3,4.5159277E-2,1.1247982E-2,3.4666788E-2,2.2450654E-2,7.779818E-2,3.8818374E-2,7.356235E-2],"split_indices":[1,6,6,5,17,17,27,17,6,26,14,15,9,1,20,21,17,7,7,17,5,26,21,21,9,22,7,20,7,14,12,24,15,12,0,7,5,3,9,10,21,26,3,26,7,7,22,10,3,16,22,17,1,9,6,7,17,7,27,26,15,14,0,0,0,0,0,0,0,0,0,0,0,0,0,0,0,0,0,0,0,0,0,0,0,0,0,0,0,0,0,0,0,0,0,0,0,0,0,0,0,0,0,0,0,0,0,0,0,0,0,0,0,0,0,0,0,0,0,0,0,0,0],"split_type":[0,0,0,0,0,0,0,0,0,0,0,0,0,0,0,0,0,0,0,0,0,0,0,0,0,0,0,0,0,0,0,0,0,0,0,0,0,0,0,0,0,0,0,0,0,0,0,0,0,0,0,0,0,0,0,0,0,0,0,0,0,0,0,0,0,0,0,0,0,0,0,0,0,0,0,0,0,0,0,0,0,0,0,0,0,0,0,0,0,0,0,0,0,0,0,0,0,0,0,0,0,0,0,0,0,0,0,0,0,0,0,0,0,0,0,0,0,0,0,0,0,0,0],"sum_hessian":[2.301E3,1.091E3,1.21E3,4.88E2,6.03E2,4.65E2,7.45E2,4.01E2,8.7E1,2.23E2,3.8E2,2.46E2,2.19E2,3.53E2,3.92E2,3.58E2,4.3E1,7.8E1,9E0,2.02E2,2.1E1,3.01E2,7.9E1,8.1E1,1.65E2,1.59E2,6E1,2.3E2,1.23E2,1.63E2,2.29E2,2.61E2,9.7E1,2.3E1,2E1,7.1E1,7E0,5E0,4E0,1.78E2,2.4E1,1.9E1,2E0,2.86E2,1.5E1,2E1,5.9E1,6.5E1,1.6E1,6.9E1,9.6E1,5.2E1,1.07E2,1.6E1,4.4E1,7.2E1,1.58E2,7.6E1,4.7E1,1.54E2,9E0,2.25E2,4E0,1.25E2,1.36E2,5E1,4.7E1,2E1,3E0,6.7E1,4E0,2E0,5E0,2E0,3E0,3E0,1E0,1.16E2,6.2E1,1.6E1,8E0,1.8E1,1E0,1E0,1E0,2.38E2,4.8E1,5E0,1E1,9E0,1.1E1,2.6E1,3.3E1,6E1,5E0,3E0,1.3E1,3.5E1,3.4E1,2.9E1,6.7E1,2E0,5E1,7.5E1,3.2E1,1.1E1,5E0,3.9E1,5E0,4.9E1,2.3E1,1.39E2,1.9E1,2.4E1,5.2E1,3.4E1,1.3E1,8.9E1,6.5E1,2E0,7E0,1.55E2,7E1],"tree_param":{"num_deleted":"0","num_feature":"38","num_nodes":"123","size_leaf_vector":"1"}},{"base_weights":[-9.3966816E-4,-1.2723833E-1,2.9802418E-1,-2.0425524E-1,3.0039335E-3,1.5913355E-1,5.8833987E-1,-2.520687E-1,-1.3065445E-1,-3.9605174E-2,4.0186155E-1,-5.361447E-2,2.7750742E-1,4.3122718E-1,8.022442E-1,-2.8889072E-1,-1.8054573E-1,-2.1000047E-1,-8.63412E-2,-2.205026E-1,6.3356594E-3,2.6204428E-1,7.5250405E-1,-2.3992687E-1,2.198729E-2,1.4177403E-1,5.4754215E-1,7.5766735E-2,6.143388E-1,5.876221E-1,1.0437557E0,-3.1143454E-1,-1.548248E-1,-2.933574E-1,-1.2123868E-1,-2.7224216E-1,-1.2429372E-1,-1.2387137E-1,4.5855973E-2,-2.9919243E-1,5.9010506E-2,-4.32297E-2,2.1963121E-1,8.506136E-2,4.8112476E-1,1.4497161E-1,1.0154759E0,-2.6150253E-1,1.7087571E-2,-1.5305525E-1,1.3837694E-1,8.565308E-3,2.562286E-1,3.4100318E-1,7.203683E-1,-2.391097E-1,3.3723226E-1,5.523653E-1,1.4954422E0,6.796576E-1,-2.1592037E-1,4.14461E-1,1.253684E0,-3.7017476E-2,-2.4841849E-2,-1.9390985E-2,1.688063E-2,-2.1989789E-2,-4.076456E-2,-9.136262E-3,-3.835973E-2,-1.8528348E-2,-4.02325E-2,-1.9998003E-2,-2.5246774E-3,-1.4780559E-2,1.0132027E-2,-1.9140352E-2,1.9616466E-2,-3.9115887E-2,-1.8365202E-2,2.2114133E-2,-8.417382E-3,-6.9880793E-3,2.2629786E-2,-4.0934477E-3,3.1000523E-2,-1.533009E-2,2.5418958E-2,2.9050607E-2,6.6064484E-2,2.3934325E-2,-1.6344333E-2,2.7654028E-2,1.0617155E-1,-2.8415201E-2,1.578571E-2,-2.7490532E-2,3.445062E-4,-1.6213965E-2,2.1371095E-2,-2.827214E-3,3.1714335E-2,2.181121E-2,8.615043E-2,4.6520226E-2,-1.0775766E-2,-6.942997E-3,7.8625865E-2,-3.449741E-2,5.1106807E-2,-6.0103205E-3,5.2774914E-2,5.912174E-2,-3.433422E-2,3.509028E-2,1.6938514E-1,4.276518E-2,9.130698E-2,-3.856137E-2,8.231084E-3,2.6337623E-3,6.0523044E-2,1.3105254E-1,-2.2577906E-2],"categories":[],"categories_nodes":[],"categories_segments":[],"categories_sizes":[],"default_left":[0,0,0,0,0,0,0,0,0,0,0,0,0,0,0,0,0,0,0,0,0,0,0,0,0,0,0,0,0,0,0,0,0,0,0,0,0,0,0,0,0,0,0,0,0,0,0,0,0,0,0,0,0,0,0,0,0,0,0,0,0,0,0,0,0,0,0,0,0,0,0,0,0,0,0,0,0,0,0,0,0,0,0,0,0,0,0,0,0,0,0,0,0,0,0,0,0,0,0,0,0,0,0,0,0,0,0,0,0,0,0,0,0,0,0,0,0,0,0,0,0,0,0,0,0],"id":10,"left_children":[1,3,5,7,9,11,13,15,17,19,21,23,25,27,29,31,33,35,37,39,41,43,45,47,49,51,53,55,57,59,61,63,65,67,69,71,73,75,77,79,81,83,85,87,89,91,93,95,-1,97,99,101,103,105,107,109,111,113,115,117,119,121,123,-1,-1,-1,-1,-1,-1,-1,-1,-1,-1,-1,-1,-1,-1,-1,-1,-1,-1,-1,-1,-1,-1,-1,-1,-1,-1,-1,-1,-1,-1,-1,-1,-1,-1,-1,-1,-1,-1,-1,-1,-1,-1,-1,-1,-1,-1,-1,-1,-1,-1,-1,-1,-1,-1,-1,-1,-1,-1,-1,-1,-1,-1],"loss_changes":[8.658094E1,1.6170351E1,2.736575E1,3.5319252E0,1.0212895E1,1.1649797E1,7.0476074E0,1.5622482E0,1.3918171E0,4.5140414E0,2.6463118E0,2.343476E0,1.0808233E1,8.349928E0,4.155369E0,1.1697922E0,1.3761349E0,7.290001E-1,1.2906781E0,2.4370875E0,4.597773E0,1.6263354E0,2.409008E0,4.7012472E-1,2.4455829E0,3.0318284E0,3.2881908E0,3.7854552E0,3.815403E0,3.9184284E0,5.028885E0,1.181385E0,7.916813E-1,5.1483965E-1,1.0623074E0,8.530259E-1,4.5973402E-1,1.1037123E0,2.1059518E0,8.419852E-1,5.989791E-1,2.5514848E0,1.9436555E0,1.046812E0,4.5825672E-1,2.1375287E-1,8.224106E-2,4.8177576E-1,0E0,9.162866E-1,1.6646671E0,1.0661185E0,2.2806907E0,2.6697059E0,2.8127117E0,1.8440645E0,1.9241974E0,3.0217972E0,5.4105854E-1,2.3153E0,3.3538726E-1,8.7256455E-1,2.9028244E0,0E0,0E0,0E0,0E0,0E0,0E0,0E0,0E0,0E0,0E0,0E0,0E0,0E0,0E0,0E0,0E0,0E0,0E0,0E0,0E0,0E0,0E0,0E0,0E0,0E0,0E0,0E0,0E0,0E0,0E0,0E0,0E0,0E0,0E0,0E0,0E0,0E0,0E0,0E0,0E0,0E0,0E0,0E0,0E0,0E0,0E0,0E0,0E0,0E0,0E0,0E0,0E0,0E0,0E0,0E0,0E0,0E0,0E0,0E0,0E0,0E0,0E0],"parents":[2147483647,0,0,1,1,2,2,3,3,4,4,5,5,6,6,7,7,8,8,9,9,10,10,11,11,12,12,13,13,14,14,15,15,16,16,17,17,18,18,19,19,20,20,21,21,22,22,23,23,24,24,25,25,26,26,27,27,28,28,29,29,30,30,31,31,32,32,33,33,34,34,35,35,36,36,37,37,38,38,39,39,40,40,41,41,42,42,43,43,44,44,45,45,46,46,47,47,49,49,50,50,51,51,52,52,53,53,54,54,55,55,56,56,57,57,58,58,59,59,60,60,61,61,62,62],"right_children":[2,4,6,8,10,12,14,16,18,20,22,24,26,28,30,32,34,36,38,40,42,44,46,48,50,52,54,56,58,60,62,64,66,68,70,72,74,76,78,80,82,84,86,88,90,92,94,96,-1,98,100,102,104,106,108,110,112,114,116,118,120,122,124,-1,-1,-1,-1,-1,-1,-1,-1,-1,-1,-1,-1,-1,-1,-1,-1,-1,-1,-1,-1,-1,-1,-1,-1,-1,-1,-1,-1,-1,-1,-1,-1,-1,-1,-1,-1,-1,-1,-1,-1,-1,-1,-1,-1,-1,-1,-1,-1,-1,-1,-1,-1,-1,-1,-1,-1,-1,-1,-1,-1,-1,-1],"split_conditions":[7.135714E1,5.104762E1,2.6444662E-1,9.207161E-1,3.9130435E0,8.411215E-1,1.1900827E0,1.3813096E0,3.2E1,3.1369817E-2,6.766917E-1,1.1642949E-1,8.428571E1,7.154213E-1,1.6127427E0,8.84E1,1.5652174E1,5.5286474E0,4.3780404E-1,2.142857E0,2.3709168E0,4.6875E-1,7.371007E-1,3.5869565E0,5.325444E-1,7.3240787E-1,1.0588236E0,7.71E1,6.0565275E-1,1.5262321E0,1.2684177E0,1.9189765E0,4.6296296E-1,2.3346303E-1,1.5522593E-1,4.4499382E-1,2.244389E-1,2.5263157E0,3.342857E1,3.5960697E1,7.93E1,4.3E-1,1.5976331E0,3.319808E-2,1.4662194E0,5.13308E-1,1.7E-1,3.901734E0,1.7087571E-2,1.0135135E-1,7.894737E-1,6.2490025E0,3.5526316E0,3.6885247E-1,3.1369817E-2,1.5132743E0,4.32E1,3.0471957E0,7.1666664E1,7.9E1,1.3E-1,1.1558219E-1,1.2354153E-1,-3.7017476E-2,-2.4841849E-2,-1.9390985E-2,1.688063E-2,-2.1989789E-2,-4.076456E-2,-9.136262E-3,-3.835973E-2,-1.8528348E-2,-4.02325E-2,-1.9998003E-2,-2.5246774E-3,-1.4780559E-2,1.0132027E-2,-1.9140352E-2,1.9616466E-2,-3.9115887E-2,-1.8365202E-2,2.2114133E-2,-8.417382E-3,-6.9880793E-3,2.2629786E-2,-4.0934477E-3,3.1000523E-2,-1.533009E-2,2.5418958E-2,2.9050607E-2,6.6064484E-2,2.3934325E-2,-1.6344333E-2,2.7654028E-2,1.0617155E-1,-2.8415201E-2,1.578571E-2,-2.7490532E-2,3.445062E-4,-1.6213965E-2,2.1371095E-2,-2.827214E-3,3.1714335E-2,2.181121E-2,8.615043E-2,4.6520226E-2,-1.0775766E-2,-6.942997E-3,7.8625865E-2,-3.449741E-2,5.1106807E-2,-6.0103205E-3,5.2774914E-2,5.912174E-2,-3.433422E-2,3.509028E-2,1.6938514E-1,4.276518E-2,9.130698E-2,-3.856137E-2,8.231084E-3,2.6337623E-3,6.0523044E-2,1.3105254E-1,-2.2577906E-2],"split_indices":[0,0,13,23,12,20,17,28,4,13,28,17,0,28,21,5,14,27,13,28,21,13,19,28,20,23,12,5,13,21,15,9,28,7,26,18,17,28,0,14,5,3,12,22,21,19,3,10,0,13,28,27,21,11,13,20,4,21,0,0,3,7,26,0,0,0,0,0,0,0,0,0,0,0,0,0,0,0,0,0,0,0,0,0,0,0,0,0,0,0,0,0,0,0,0,0,0,0,0,0,0,0,0,0,0,0,0,0,0,0,0,0,0,0,0,0,0,0,0,0,0,0,0,0,0],"split_type":[0,0,0,0,0,0,0,0,0,0,0,0,0,0,0,0,0,0,0,0,0,0,0,0,0,0,0,0,0,0,0,0,0,0,0,0,0,0,0,0,0,0,0,0,0,0,0,0,0,0,0,0,0,0,0,0,0,0,0,0,0,0,0,0,0,0,0,0,0,0,0,0,0,0,0,0,0,0,0,0,0,0,0,0,0,0,0,0,0,0,0,0,0,0,0,0,0,0,0,0,0,0,0,0,0,0,0,0,0,0,0,0,0,0,0,0,0,0,0,0,0,0,0,0,0],"sum_hessian":[2.291E3,1.611E3,6.8E2,1.012E3,5.99E2,4.61E2,2.19E2,6.12E2,4E2,5.42E2,5.7E1,1.65E2,2.96E2,1.28E2,9.1E1,4.02E2,2.1E2,1.42E2,2.58E2,1.09E2,4.33E2,4.2E1,1.5E1,4.7E1,1.18E2,1.98E2,9.8E1,4.4E1,8.4E1,5E1,4.1E1,3.43E2,5.9E1,7.1E1,1.39E2,8.1E1,6.1E1,2.01E2,5.7E1,8.5E1,2.4E1,3.52E2,8.1E1,2.4E1,1.8E1,5E0,1E1,4.5E1,2E0,4.7E1,7.1E1,9.2E1,1.06E2,4.6E1,5.2E1,2E1,2.4E1,8E1,4E0,4.5E1,5E0,1.1E1,3E1,1.75E2,1.68E2,5.3E1,6E0,4.5E1,2.6E1,1.26E2,1.3E1,5E1,3.1E1,3.4E1,2.7E1,1.82E2,1.9E1,2.2E1,3.5E1,4.6E1,3.9E1,1.1E1,1.3E1,3.21E2,3.1E1,2.1E1,6E1,1E1,1.4E1,1E1,8E0,4E0,1E0,1E0,9E0,4.3E1,2E0,2.6E1,2.1E1,1.4E1,5.7E1,8.3E1,9E0,1.01E2,5E0,3.6E1,1E1,4E0,4.8E1,1.8E1,2E0,8E0,1.6E1,7.7E1,3E0,1E0,3E0,2.3E1,2.2E1,3E0,2E0,4E0,7E0,2.9E1,1E0],"tree_param":{"num_deleted":"0","num_feature":"38","num_nodes":"125","size_leaf_vector":"1"}},{"base_weights":[2.162268E-3,-1.15771145E-1,2.812395E-1,-1.9454028E-1,-2.2196202E-2,1.3522878E-1,5.5490154E-1,-2.3731172E-1,-1.4142266E-1,-1.0406534E-1,1.505412E-1,-1.56562E-1,2.1211077E-1,5.0192016E-1,1.433277E0,-2.6650637E-1,-1.6681597E-1,-1.8681431E-1,-6.840569E-2,-2.173781E-1,-1.1904949E-2,-3.3042345E-2,2.6770774E-1,-2.7510393E-1,5.1125906E-2,7.210847E-2,3.3892947E-1,1.8386978E-1,5.8217824E-1,5.9809573E-2,1.7380136E-1,-2.8469214E-1,-1.40154E-1,-1.8574743E-1,-1.3346924E-2,-2.671922E-1,-1.112944E-1,-4.9820993E-2,-3.9902568E-1,-3.1579524E-1,-1.3533068E-1,-5.339175E-2,2.5261375E-1,-7.8561656E-2,4.6611047E-1,1.6291128E-1,4.5972246E-1,-3.0104122E-1,7.041464E-2,-6.943846E-2,6.454267E-2,1.0929656E-1,-2.2919142E-1,-5.964154E-2,4.1902846E-1,4.0705274E-3,6.5380085E-1,4.0996006E-1,7.536602E-1,-2.4401976E-2,-3.5712782E-2,-3.723168E-2,-8.758936E-3,-2.1690449E-2,-6.561283E-3,-1.8925821E-2,1.287168E-2,-9.049033E-3,-3.1422544E-2,-1.2809669E-2,1.2323507E-2,-7.875766E-3,1.0835147E-2,-1.1856723E-2,-4.22153E-2,-3.406706E-2,1.9073844E-3,-1.6408978E-2,3.3751137E-3,-9.940911E-3,1.1258355E-2,1.778663E-2,1.0653787E-1,-1.8551404E-2,1.1106006E-2,5.8672935E-2,6.9502513E-3,2.1257421E-3,2.8236344E-2,3.0508433E-2,7.2627656E-2,-2.0978544E-2,-3.982677E-2,-2.0895005E-4,8.906305E-3,-1.4473236E-2,1.55711295E-2,-2.2558078E-2,1.4490427E-2,-2.9097265E-2,1.9729933E-2,-2.7120933E-2,4.8853336E-3,3.2021698E-2,6.8596244E-2,-1.1132158E-2,2.6595527E-2,2.144417E-2,8.252447E-2,4.840315E-2,5.470186E-3,2.2148393E-2,8.5004665E-2],"categories":[],"categories_nodes":[],"categories_segments":[],"categories_sizes":[],"default_left":[0,0,0,0,0,0,0,0,0,0,0,0,0,0,0,0,0,0,0,0,0,0,0,0,0,0,0,0,0,0,0,0,0,0,0,0,0,0,0,0,0,0,0,0,0,0,0,0,0,0,0,0,0,0,0,0,0,0,0,0,0,0,0,0,0,0,0,0,0,0,0,0,0,0,0,0,0,0,0,0,0,0,0,0,0,0,0,0,0,0,0,0,0,0,0,0,0,0,0,0,0,0,0,0,0,0,0,0,0,0,0,0,0],"id":11,"left_children":[1,3,5,7,9,11,13,15,17,19,21,23,25,27,29,31,33,35,37,39,41,43,45,47,49,51,53,55,57,-1,-1,59,61,63,65,67,69,71,73,75,77,79,81,83,85,87,89,91,93,95,-1,97,99,101,103,105,107,109,111,-1,-1,-1,-1,-1,-1,-1,-1,-1,-1,-1,-1,-1,-1,-1,-1,-1,-1,-1,-1,-1,-1,-1,-1,-1,-1,-1,-1,-1,-1,-1,-1,-1,-1,-1,-1,-1,-1,-1,-1,-1,-1,-1,-1,-1,-1,-1,-1,-1,-1,-1,-1,-1,-1],"loss_changes":[7.589594E1,1.1943775E1,2.7295906E1,1.9657288E0,1.0508928E1,1.0083398E1,1.0356537E1,9.5578E-1,1.2963939E0,5.2606573E0,5.1496987E0,2.328319E0,6.278554E0,5.6618576E0,2.2691383E0,7.459507E-1,4.1880322E-1,1.4453039E0,9.202243E-1,1.7821846E0,3.0752432E0,2.1724012E0,2.8629866E0,5.5890656E-1,2.5526202E0,1.9298601E0,5.963066E0,3.9685218E0,5.0068474E0,0E0,0E0,7.90802E-1,5.165488E-1,4.686203E-1,4.4920117E-1,9.4393635E-1,5.1624584E-1,6.767731E-1,1.8365383E-3,8.5615635E-1,6.133683E-1,1.8595263E0,2.1190853E0,1.785006E0,3.4192812E-1,1.6184006E0,1.8806152E0,4.1330814E-1,6.94653E-3,5.3110844E-1,0E0,1.8451685E0,5.5804217E-1,7.4777806E-1,3.8686447E0,1.0872867E0,8.0226374E-1,2.394454E0,4.3769417E0,0E0,0E0,0E0,0E0,0E0,0E0,0E0,0E0,0E0,0E0,0E0,0E0,0E0,0E0,0E0,0E0,0E0,0E0,0E0,0E0,0E0,0E0,0E0,0E0,0E0,0E0,0E0,0E0,0E0,0E0,0E0,0E0,0E0,0E0,0E0,0E0,0E0,0E0,0E0,0E0,0E0,0E0,0E0,0E0,0E0,0E0,0E0,0E0,0E0,0E0,0E0,0E0,0E0,0E0],"parents":[2147483647,0,0,1,1,2,2,3,3,4,4,5,5,6,6,7,7,8,8,9,9,10,10,11,11,12,12,13,13,14,14,15,15,16,16,17,17,18,18,19,19,20,20,21,21,22,22,23,23,24,24,25,25,26,26,27,27,28,28,31,31,32,32,33,33,34,34,35,35,36,36,37,37,38,38,39,39,40,40,41,41,42,42,43,43,44,44,45,45,46,46,47,47,48,48,49,49,51,51,52,52,53,53,54,54,55,55,56,56,57,57,58,58],"right_children":[2,4,6,8,10,12,14,16,18,20,22,24,26,28,30,32,34,36,38,40,42,44,46,48,50,52,54,56,58,-1,-1,60,62,64,66,68,70,72,74,76,78,80,82,84,86,88,90,92,94,96,-1,98,100,102,104,106,108,110,112,-1,-1,-1,-1,-1,-1,-1,-1,-1,-1,-1,-1,-1,-1,-1,-1,-1,-1,-1,-1,-1,-1,-1,-1,-1,-1,-1,-1,-1,-1,-1,-1,-1,-1,-1,-1,-1,-1,-1,-1,-1,-1,-1,-1,-1,-1,-1,-1,-1,-1,-1,-1,-1,-1],"split_conditions":[7.1E1,4.546875E1,1E-1,1.0426321E0,1.7E-1,3.62E1,7.1E-1,2.149437E0,9.143686E-1,4.7081122E0,9.332227E-1,9E-2,8.110811E1,9.6192384E-1,1.2966102E1,3.6E-1,2.3E-1,2.2643618E1,1.8E-1,3.0207851E1,5.659001E1,6.3E-1,7.5842695E0,4.4247788E-1,2.5426722E0,5.172414E-2,6.161369E-1,5E-1,2.9612222E0,5.9809573E-2,1.7380136E-1,8.729389E-2,1.5547445E1,1.3899614E0,2.8081122E-1,8.411215E-1,2.5E-1,8.1E1,1.8955042E0,2.0549684E0,8.372093E-1,9E-2,1.4195584E0,6.3307693E1,7.5E-1,1.472995E0,3.9E-1,1.99262E-1,7.19E1,8.7190527E-1,6.454267E-2,4.6296296E-1,3.36293E0,3.896648E0,6E0,3.403057E0,2E-1,6.642067E-2,1.3313609E0,-2.4401976E-2,-3.5712782E-2,-3.723168E-2,-8.758936E-3,-2.1690449E-2,-6.561283E-3,-1.8925821E-2,1.287168E-2,-9.049033E-3,-3.1422544E-2,-1.2809669E-2,1.2323507E-2,-7.875766E-3,1.0835147E-2,-1.1856723E-2,-4.22153E-2,-3.406706E-2,1.9073844E-3,-1.6408978E-2,3.3751137E-3,-9.940911E-3,1.1258355E-2,1.778663E-2,1.0653787E-1,-1.8551404E-2,1.1106006E-2,5.8672935E-2,6.9502513E-3,2.1257421E-3,2.8236344E-2,3.0508433E-2,7.2627656E-2,-2.0978544E-2,-3.982677E-2,-2.0895005E-4,8.906305E-3,-1.4473236E-2,1.55711295E-2,-2.2558078E-2,1.4490427E-2,-2.9097265E-2,1.9729933E-2,-2.7120933E-2,4.8853336E-3,3.2021698E-2,6.8596244E-2,-1.1132158E-2,2.6595527E-2,2.144417E-2,8.252447E-2,4.840315E-2,5.470186E-3,2.2148393E-2,8.5004665E-2],"split_indices":[0,0,2,28,1,4,1,21,18,27,21,13,0,21,14,1,1,14,26,14,14,1,11,7,28,8,12,1,12,0,0,13,14,18,24,12,2,5,16,18,18,1,18,0,1,21,1,7,0,23,0,28,28,27,27,9,2,26,9,0,0,0,0,0,0,0,0,0,0,0,0,0,0,0,0,0,0,0,0,0,0,0,0,0,0,0,0,0,0,0,0,0,0,0,0,0,0,0,0,0,0,0,0,0,0,0,0,0,0,0,0,0,0],"split_type":[0,0,0,0,0,0,0,0,0,0,0,0,0,0,0,0,0,0,0,0,0,0,0,0,0,0,0,0,0,0,0,0,0,0,0,0,0,0,0,0,0,0,0,0,0,0,0,0,0,0,0,0,0,0,0,0,0,0,0,0,0,0,0,0,0,0,0,0,0,0,0,0,0,0,0,0,0,0,0,0,0,0,0,0,0,0,0,0,0,0,0,0,0,0,0,0,0,0,0,0,0,0,0,0,0,0,0,0,0,0,0,0,0],"sum_hessian":[2.304E3,1.62E3,6.84E2,8.79E2,7.41E2,4.47E2,2.37E2,4.85E2,3.94E2,5.03E2,2.38E2,9.3E1,3.54E2,2.25E2,1.2E1,3.41E2,1.44E2,2.42E2,1.52E2,2.25E2,2.78E2,9.3E1,1.45E2,5.9E1,3.4E1,1.69E2,1.85E2,4.6E1,1.79E2,4E0,8E0,2.97E2,4.4E1,1.28E2,1.6E1,1.16E2,1.26E2,1.45E2,7E0,1.01E2,1.24E2,2.41E2,3.7E1,8.6E1,7E0,9.5E1,5E1,5.5E1,4E0,2.9E1,5E0,1.51E2,1.8E1,3.1E1,1.54E2,3.4E1,1.2E1,9.1E1,8.8E1,1.93E2,1.04E2,7E0,3.7E1,1.01E2,2.7E1,7E0,9E0,2.5E1,9.1E1,1.18E2,8E0,1.23E2,2.2E1,1E0,6E0,9.4E1,7E0,1.06E2,1.8E1,1.89E2,5.2E1,3.5E1,2E0,5.5E1,3.1E1,5E0,2E0,4.4E1,5.1E1,3.3E1,1.7E1,3E1,2.5E1,1E0,3E0,2.2E1,7E0,1.4E1,1.37E2,1.6E1,2E0,1E1,2.1E1,1.14E2,4E1,2.4E1,1E1,4E0,8E0,7.5E1,1.6E1,1.4E1,7.4E1],"tree_param":{"num_deleted":"0","num_feature":"38","num_nodes":"113","size_leaf_vector":"1"}},{"base_weights":[-2.1079262E-3,-1.0464084E-1,2.4560745E-1,-1.9887966E-1,-4.7062137E-3,9.5896095E-2,4.8147938E-1,-2.404747E-1,-4.3239545E-2,-3.8558755E-2,2.2862126E-1,3.3820856E-2,3.9200807E-1,4.2630813E-1,1.0664775E0,-2.6121587E-1,-1.310853E-1,-1.03928596E-1,3.7290916E-1,-9.5760055E-2,3.638519E-2,4.101944E-2,4.2687178E-1,-2.679377E-1,7.3155895E-2,7.044159E-2,5.513238E-1,3.7403813E-1,9.878031E-1,3.8758468E-2,1.1958102E0,-2.1655968E-1,-3.2986978E-1,-2.0094053E-1,-7.307899E-3,-1.421848E-1,3.307696E-1,6.890182E-2,5.634209E-1,-8.287068E-2,-3.213675E-1,7.503001E-3,2.9800028E-1,-6.006777E-2,2.5861987E-1,1.926856E-1,5.6876683E-1,-2.0049536E-1,-4.7796175E-1,4.5323037E-3,3.2262754E-1,2.144048E-1,-2.0931578E-1,1.9572255E-1,7.2300804E-1,2.523262E-1,5.295369E-1,1.8795228E-1,1.2418898E0,1.2605958E0,4.7226907E-3,-2.3306964E-2,-7.4611083E-3,-3.8513612E-2,-2.1936012E-2,1.6473453E-4,-2.525383E-2,7.666672E-3,-2.3566524E-2,-2.8347293E-2,-3.6208003E-3,1.3716439E-2,4.7712203E-2,-7.0118085E-3,2.9496122E-2,1.8924227E-2,6.941681E-2,-9.504726E-3,1.0761645E-2,-3.6989566E-2,9.309991E-3,3.1411473E-3,-1.8720267E-2,-1.5342752E-2,3.9442293E-2,-1.5655218E-2,7.6352507E-3,3.999653E-3,4.9957156E-2,9.01796E-3,4.1683637E-2,2.5565851E-2,7.365844E-2,-3.3244755E-2,-7.939659E-3,-6.886411E-2,-1.7169008E-2,-1.9746887E-2,5.448861E-3,-2.4282968E-2,3.8322043E-2,4.188906E-2,2.9375697E-3,-2.2404497E-2,-4.5741084E-3,-2.7530564E-2,3.1632185E-2,-6.832695E-3,7.7804126E-2,7.788796E-3,3.5383504E-2,4.2036187E-2,8.440959E-2,5.1905252E-2,-3.1616546E-2,9.967876E-3,1.3163565E-1,1.8758679E-2,1.3159347E-1],"categories":[],"categories_nodes":[],"categories_segments":[],"categories_sizes":[],"default_left":[0,0,0,0,0,0,0,0,0,0,0,0,0,0,0,0,0,0,0,0,0,0,0,0,0,0,0,0,0,0,0,0,0,0,0,0,0,0,0,0,0,0,0,0,0,0,0,0,0,0,0,0,0,0,0,0,0,0,0,0,0,0,0,0,0,0,0,0,0,0,0,0,0,0,0,0,0,0,0,0,0,0,0,0,0,0,0,0,0,0,0,0,0,0,0,0,0,0,0,0,0,0,0,0,0,0,0,0,0,0,0,0,0,0,0,0,0,0,0],"id":12,"left_children":[1,3,5,7,9,11,13,15,17,19,21,23,25,27,29,31,33,35,37,39,41,43,45,47,49,51,53,55,57,-1,59,61,63,65,67,69,71,73,75,77,79,81,83,85,87,89,91,93,95,97,99,101,103,105,107,109,111,113,115,117,-1,-1,-1,-1,-1,-1,-1,-1,-1,-1,-1,-1,-1,-1,-1,-1,-1,-1,-1,-1,-1,-1,-1,-1,-1,-1,-1,-1,-1,-1,-1,-1,-1,-1,-1,-1,-1,-1,-1,-1,-1,-1,-1,-1,-1,-1,-1,-1,-1,-1,-1,-1,-1,-1,-1,-1,-1,-1,-1],"loss_changes":[5.8824337E1,1.5425295E1,2.389584E1,5.4470596E0,6.296203E0,7.6333294E0,8.033699E0,1.4745522E0,4.559521E0,2.9871602E0,3.7388968E0,4.1146417E0,3.649766E0,6.7330666E0,1.4681892E0,1.6392899E0,9.323536E-1,2.6579244E0,1.2932696E0,1.122004E0,2.2796807E0,1.1813556E0,1.5186691E0,4.7075105E-1,5.2371473E0,1.0517476E0,2.7889452E0,4.086895E0,3.831213E0,0E0,1.2798767E0,7.817669E-1,1.2469444E0,7.21679E-1,7.851165E-1,2.160859E0,3.0290556E-1,3.3494967E-1,5.535536E-1,8.800342E-1,4.5681763E-1,1.2767267E0,1.3663514E0,4.9896306E-1,8.7553906E-1,4.2194575E-1,1.3880377E0,4.8494065E-1,4.6249318E-1,2.442747E0,2.3543944E0,6.309037E-1,1.1435866E-2,1.0527816E0,1.4467506E0,2.2212324E0,2.976347E0,1.1655874E0,1.1446362E0,7.625942E-1,0E0,0E0,0E0,0E0,0E0,0E0,0E0,0E0,0E0,0E0,0E0,0E0,0E0,0E0,0E0,0E0,0E0,0E0,0E0,0E0,0E0,0E0,0E0,0E0,0E0,0E0,0E0,0E0,0E0,0E0,0E0,0E0,0E0,0E0,0E0,0E0,0E0,0E0,0E0,0E0,0E0,0E0,0E0,0E0,0E0,0E0,0E0,0E0,0E0,0E0,0E0,0E0,0E0,0E0,0E0,0E0,0E0,0E0,0E0],"parents":[2147483647,0,0,1,1,2,2,3,3,4,4,5,5,6,6,7,7,8,8,9,9,10,10,11,11,12,12,13,13,14,14,15,15,16,16,17,17,18,18,19,19,20,20,21,21,22,22,23,23,24,24,25,25,26,26,27,27,28,28,30,30,31,31,32,32,33,33,34,34,35,35,36,36,37,37,38,38,39,39,40,40,41,41,42,42,43,43,44,44,45,45,46,46,47,47,48,48,49,49,50,50,51,51,52,52,53,53,54,54,55,55,56,56,57,57,58,58,59,59],"right_children":[2,4,6,8,10,12,14,16,18,20,22,24,26,28,30,32,34,36,38,40,42,44,46,48,50,52,54,56,58,-1,60,62,64,66,68,70,72,74,76,78,80,82,84,86,88,90,92,94,96,98,100,102,104,106,108,110,112,114,116,118,-1,-1,-1,-1,-1,-1,-1,-1,-1,-1,-1,-1,-1,-1,-1,-1,-1,-1,-1,-1,-1,-1,-1,-1,-1,-1,-1,-1,-1,-1,-1,-1,-1,-1,-1,-1,-1,-1,-1,-1,-1,-1,-1,-1,-1,-1,-1,-1,-1,-1,-1,-1,-1,-1,-1,-1,-1,-1,-1],"split_conditions":[7.1E1,4.03E1,9E-2,5.4666668E1,3.3E-1,1.3889989E0,2.1052632E0,3.1E-1,5.6733525E-1,3E-2,2.9683378E-1,4.03E1,3E-2,8.79375E1,2.5104603E-1,4.5064378E-1,7.159091E0,1.5566038E0,9.911894E-1,1.7458779E-1,1.942446E0,5.626923E1,4.3333332E1,2.1760483E0,1E-1,5.382775E-2,8.871516E-1,1.7E-1,8.181818E-1,3.8758468E-2,2.6086956E-1,3.0560273E-1,1.5789474E0,2E1,2.063882E0,7.7907413E-1,1.1E-1,2.5E-1,6.5217394E-1,9.15E1,1.6289593E0,4.1095892E-1,1E-2,3.36293E0,4.7E-1,1.2676057E0,6.470387E-1,3E-2,3.24E1,6.293706E-1,1.0714285E0,9.5238096E-1,8.56E1,3.1369817E-2,3.28E1,4.71E1,8.24E1,1.6E-1,6.47E1,1.88E1,4.7226907E-3,-2.3306964E-2,-7.4611083E-3,-3.8513612E-2,-2.1936012E-2,1.6473453E-4,-2.525383E-2,7.666672E-3,-2.3566524E-2,-2.8347293E-2,-3.6208003E-3,1.3716439E-2,4.7712203E-2,-7.0118085E-3,2.9496122E-2,1.8924227E-2,6.941681E-2,-9.504726E-3,1.0761645E-2,-3.6989566E-2,9.309991E-3,3.1411473E-3,-1.8720267E-2,-1.5342752E-2,3.9442293E-2,-1.5655218E-2,7.6352507E-3,3.999653E-3,4.9957156E-2,9.01796E-3,4.1683637E-2,2.5565851E-2,7.365844E-2,-3.3244755E-2,-7.939659E-3,-6.886411E-2,-1.7169008E-2,-1.9746887E-2,5.448861E-3,-2.4282968E-2,3.8322043E-2,4.188906E-2,2.9375697E-3,-2.2404497E-2,-4.5741084E-3,-2.7530564E-2,3.1632185E-2,-6.832695E-3,7.7804126E-2,7.788796E-3,3.5383504E-2,4.2036187E-2,8.440959E-2,5.1905252E-2,-3.1616546E-2,9.967876E-3,1.3163565E-1,1.8758679E-2,1.3159347E-1],"split_indices":[0,6,2,0,1,20,17,1,13,2,24,6,1,0,24,28,11,23,18,26,20,0,0,9,1,26,23,2,28,0,7,28,19,0,16,17,1,3,13,5,23,7,3,28,1,19,20,2,6,20,10,23,5,13,6,6,5,2,5,6,0,0,0,0,0,0,0,0,0,0,0,0,0,0,0,0,0,0,0,0,0,0,0,0,0,0,0,0,0,0,0,0,0,0,0,0,0,0,0,0,0,0,0,0,0,0,0,0,0,0,0,0,0,0,0,0,0,0,0],"split_type":[0,0,0,0,0,0,0,0,0,0,0,0,0,0,0,0,0,0,0,0,0,0,0,0,0,0,0,0,0,0,0,0,0,0,0,0,0,0,0,0,0,0,0,0,0,0,0,0,0,0,0,0,0,0,0,0,0,0,0,0,0,0,0,0,0,0,0,0,0,0,0,0,0,0,0,0,0,0,0,0,0,0,0,0,0,0,0,0,0,0,0,0,0,0,0,0,0,0,0,0,0,0,0,0,0,0,0,0,0,0,0,0,0,0,0,0,0,0,0],"sum_hessian":[2.314E3,1.637E3,6.77E2,8.42E2,7.95E2,4.15E2,2.62E2,6.64E2,1.78E2,6.95E2,1E2,3.44E2,7.1E1,2.41E2,2.1E1,5.57E2,1.07E2,1.56E2,2.2E1,3.94E2,3.01E2,5.2E1,4.8E1,3.9E1,3.05E2,2.4E1,4.7E1,2.22E2,1.9E1,4E0,1.7E1,3.4E2,2.17E2,6.8E1,3.9E1,1.44E2,1.2E1,9E0,1.3E1,3.74E2,2E1,2.72E2,2.9E1,3.6E1,1.6E1,1.9E1,2.9E1,3.1E1,8E0,2.4E2,6.5E1,1.6E1,8E0,1.6E1,3.1E1,1.26E2,9.6E1,5E0,1.4E1,1.6E1,1E0,3.04E2,3.6E1,1.43E2,7.4E1,1.4E1,5.4E1,2.9E1,1E1,6.1E1,8.3E1,6E0,6E0,6E0,3E0,4E0,9E0,3.52E2,2.2E1,1.8E1,2E0,2.43E2,2.9E1,5E0,2.4E1,2.1E1,1.5E1,9E0,7E0,1.4E1,5E0,1.1E1,1.8E1,1.4E1,1.7E1,4E0,4E0,4.7E1,1.93E2,6E0,5.9E1,7E0,9E0,7E0,1E0,3E0,1.3E1,2E0,2.9E1,4.7E1,7.9E1,7.3E1,2.3E1,3E0,2E0,1E0,1.3E1,1E0,1.5E1],"tree_param":{"num_deleted":"0","num_feature":"38","num_nodes":"119","size_leaf_vector":"1"}},{"base_weights":[9.969169E-4,-7.299011E-2,2.6764128E-1,-1.388473E-1,3.6333617E-2,1.8246308E-1,5.75422E-1,-1.6034962E-1,-1.6566092E-2,-2.8157662E-4,3.5298166E-1,3.175638E-2,3.0356914E-1,2.8699937E-1,7.589853E-1,-1.9634356E-1,-9.557558E-2,-6.840118E-2,2.2933885E-1,-1.09495565E-1,6.256607E-2,1.6561878E-1,5.206768E-1,-5.891404E-2,2.7166244E-1,2.2147556E-1,5.931237E-1,1.992374E-1,9.316953E-1,3.9009345E-1,8.692288E-1,-2.1092129E-1,-2.2163937E-2,-1.3476391E-1,1.4509098E-2,-1.2627934E-1,9.332536E-2,-6.16714E-2,3.5699427E-1,-1.5846941E-1,4.8522897E-2,3.7563555E-2,3.6217752E-1,3.3617698E-2,4.9225968E-1,6.438797E-1,1.2364092E-1,4.4069756E-2,-2.3005193E-1,1.22679204E-1,6.011792E-1,7.2346106E-3,3.0850655E-1,-1.0210037E-2,6.963809E-1,-1.96697E-1,2.89184E-1,1.0251309E-1,2.7897645E-2,-1.5637359E-1,5.702659E-1,6.8606997E-1,1.2508613E0,-2.501053E-2,-1.5945187E-2,-6.6501843E-3,2.1338059E-2,-1.9729467E-2,-6.5545337E-3,-1.0248194E-2,9.154766E-3,-1.8362597E-2,-1.12534966E-4,-7.3927813E-3,1.9397004E-2,-1.6821943E-2,1.402055E-2,1.2965393E-2,5.1669504E-2,-2.7387885E-2,-9.8884925E-3,-1.7632617E-2,1.3952449E-2,2.2678718E-3,4.059382E-2,2.7902392E-4,4.92737E-2,-9.538581E-3,3.3579882E-2,1.16636995E-2,6.365784E-2,3.2842103E-2,7.760222E-2,-6.7369463E-3,3.2812517E-2,-1.6174113E-2,1.2222944E-2,-1.4832749E-2,-3.8933814E-2,-3.2217123E-2,2.2582658E-2,9.118962E-3,6.3109346E-2,5.8737053E-3,-6.126033E-2,3.626909E-2,4.326519E-3,-2.311778E-2,4.3512885E-2,2.7044112E-2,7.914438E-2,1.55840395E-2,-2.693224E-2,-6.1890655E-3,4.0400352E-2,-1.7574036E-2,-3.945327E-3,6.772935E-2,1.601304E-2,3.554756E-2,9.0528145E-2,-2.875805E-4,1.3406195E-1],"categories":[],"categories_nodes":[],"categories_segments":[],"categories_sizes":[],"default_left":[0,0,0,0,0,0,0,0,0,0,0,0,0,0,0,0,0,0,0,0,0,0,0,0,0,0,0,0,0,0,0,0,0,0,0,0,0,0,0,0,0,0,0,0,0,0,0,0,0,0,0,0,0,0,0,0,0,0,0,0,0,0,0,0,0,0,0,0,0,0,0,0,0,0,0,0,0,0,0,0,0,0,0,0,0,0,0,0,0,0,0,0,0,0,0,0,0,0,0,0,0,0,0,0,0,0,0,0,0,0,0,0,0,0,0,0,0,0,0,0,0,0,0],"id":13,"left_children":[1,3,5,7,9,11,13,15,17,19,21,23,25,27,29,31,33,35,37,39,41,43,45,47,49,51,53,55,57,59,61,63,65,67,69,71,73,75,77,79,81,83,85,87,89,91,93,95,97,99,101,103,105,107,109,111,113,-1,-1,115,117,119,121,-1,-1,-1,-1,-1,-1,-1,-1,-1,-1,-1,-1,-1,-1,-1,-1,-1,-1,-1,-1,-1,-1,-1,-1,-1,-1,-1,-1,-1,-1,-1,-1,-1,-1,-1,-1,-1,-1,-1,-1,-1,-1,-1,-1,-1,-1,-1,-1,-1,-1,-1,-1,-1,-1,-1,-1,-1,-1,-1,-1],"loss_changes":[4.5867928E1,1.3108598E1,1.3134193E1,2.9842625E0,7.9420776E0,7.2362013E0,5.5530434E0,2.2334385E0,2.1953392E0,4.228114E0,2.144575E0,3.887929E0,5.0981617E0,2.3038821E0,2.345005E0,1.5695915E0,1.4989257E0,1.3409669E0,1.1364877E0,1.7489128E0,2.9153917E0,1.4925447E0,1.7302818E0,2.301314E0,2.3317795E0,3.2234573E0,2.9974403E0,1.4813998E0,1.8948555E-2,1.7629654E0,2.6367912E0,1.1137199E0,5.259242E-1,1.0951104E0,8.385616E-1,7.533951E-1,6.539992E-1,2.3868115E-1,6.954429E-1,1.1556954E0,1.1295294E0,1.9757112E0,1.4062672E0,1.0455734E0,4.678452E-1,9.1233253E-1,4.1269177E-1,1.3388307E0,5.801115E-1,1.6787353E0,1.7128992E-1,1.6640639E0,1.7520561E0,8.8783646E-1,1.4460945E0,2.4679667E-1,1.3552411E0,0E0,0E0,4.3883175E-3,4.6219063E-1,2.287117E0,1.6918526E0,0E0,0E0,0E0,0E0,0E0,0E0,0E0,0E0,0E0,0E0,0E0,0E0,0E0,0E0,0E0,0E0,0E0,0E0,0E0,0E0,0E0,0E0,0E0,0E0,0E0,0E0,0E0,0E0,0E0,0E0,0E0,0E0,0E0,0E0,0E0,0E0,0E0,0E0,0E0,0E0,0E0,0E0,0E0,0E0,0E0,0E0,0E0,0E0,0E0,0E0,0E0,0E0,0E0,0E0,0E0,0E0,0E0,0E0,0E0,0E0],"parents":[2147483647,0,0,1,1,2,2,3,3,4,4,5,5,6,6,7,7,8,8,9,9,10,10,11,11,12,12,13,13,14,14,15,15,16,16,17,17,18,18,19,19,20,20,21,21,22,22,23,23,24,24,25,25,26,26,27,27,28,28,29,29,30,30,31,31,32,32,33,33,34,34,35,35,36,36,37,37,38,38,39,39,40,40,41,41,42,42,43,43,44,44,45,45,46,46,47,47,48,48,49,49,50,50,51,51,52,52,53,53,54,54,55,55,56,56,59,59,60,60,61,61,62,62],"right_children":[2,4,6,8,10,12,14,16,18,20,22,24,26,28,30,32,34,36,38,40,42,44,46,48,50,52,54,56,58,60,62,64,66,68,70,72,74,76,78,80,82,84,86,88,90,92,94,96,98,100,102,104,106,108,110,112,114,-1,-1,116,118,120,122,-1,-1,-1,-1,-1,-1,-1,-1,-1,-1,-1,-1,-1,-1,-1,-1,-1,-1,-1,-1,-1,-1,-1,-1,-1,-1,-1,-1,-1,-1,-1,-1,-1,-1,-1,-1,-1,-1,-1,-1,-1,-1,-1,-1,-1,-1,-1,-1,-1,-1,-1,-1,-1,-1,-1,-1,-1,-1,-1,-1],"split_conditions":[7.664286E1,5.435294E1,1.6E-1,3.1E-1,8.001052E0,1.5944881E0,5.9907836E-1,1.5099136E0,4.61875E1,3E-2,2.7E-1,8E-2,8.696296E1,9.528796E0,5.378486E-1,3.3333333E0,8.796579E-1,5.4523426E-1,7.2761196E-1,2.3709168E0,5.9388123E0,2.8125E0,5.13E1,2.195122E-1,3.8622754E0,4.8913045E0,2.63E1,2.7829313E-1,4.5E-1,2.8E-1,2.2E-1,2.9142857E1,3.2666668E1,1.5448943E0,6.3920456E-1,4.87E1,6.766917E-1,2.1706264E0,3.6E-1,3.3704697E1,7.255814E-1,5.2E-1,5.5062265E0,2.7322404E-2,4.362353E0,3.81E1,1.8987341E-1,3.5960697E1,6.2015504E-1,4.888889E-1,7.855173E1,1.2E-1,6.47E1,3E-2,2.9713604E0,7.6818184E1,5.732484E-1,1.0251309E-1,2.7897645E-2,8.35625E1,8.181818E-1,9.766277E-1,7.7361115E1,-2.501053E-2,-1.5945187E-2,-6.6501843E-3,2.1338059E-2,-1.9729467E-2,-6.5545337E-3,-1.0248194E-2,9.154766E-3,-1.8362597E-2,-1.12534966E-4,-7.3927813E-3,1.9397004E-2,-1.6821943E-2,1.402055E-2,1.2965393E-2,5.1669504E-2,-2.7387885E-2,-9.8884925E-3,-1.7632617E-2,1.3952449E-2,2.2678718E-3,4.059382E-2,2.7902392E-4,4.92737E-2,-9.538581E-3,3.3579882E-2,1.16636995E-2,6.365784E-2,3.2842103E-2,7.760222E-2,-6.7369463E-3,3.2812517E-2,-1.6174113E-2,1.2222944E-2,-1.4832749E-2,-3.8933814E-2,-3.2217123E-2,2.2582658E-2,9.118962E-3,6.3109346E-2,5.8737053E-3,-6.126033E-2,3.626909E-2,4.326519E-3,-2.311778E-2,4.3512885E-2,2.7044112E-2,7.914438E-2,1.55840395E-2,-2.693224E-2,-6.1890655E-3,4.0400352E-2,-1.7574036E-2,-3.945327E-3,6.772935E-2,1.601304E-2,3.554756E-2,9.0528145E-2,-2.875805E-4,1.3406195E-1],"split_indices":[0,0,1,1,11,21,23,25,0,2,1,1,0,11,20,18,18,24,21,21,16,18,4,7,16,27,4,23,2,3,2,14,0,28,15,4,28,19,3,14,23,1,27,26,9,4,24,14,23,20,0,3,4,1,10,0,28,0,0,0,23,28,0,0,0,0,0,0,0,0,0,0,0,0,0,0,0,0,0,0,0,0,0,0,0,0,0,0,0,0,0,0,0,0,0,0,0,0,0,0,0,0,0,0,0,0,0,0,0,0,0,0,0,0,0,0,0,0,0,0,0,0,0],"split_type":[0,0,0,0,0,0,0,0,0,0,0,0,0,0,0,0,0,0,0,0,0,0,0,0,0,0,0,0,0,0,0,0,0,0,0,0,0,0,0,0,0,0,0,0,0,0,0,0,0,0,0,0,0,0,0,0,0,0,0,0,0,0,0,0,0,0,0,0,0,0,0,0,0,0,0,0,0,0,0,0,0,0,0,0,0,0,0,0,0,0,0,0,0,0,0,0,0,0,0,0,0,0,0,0,0,0,0,0,0,0,0,0,0,0,0,0,0,0,0,0,0,0,0],"sum_hessian":[2.323E3,1.819E3,5.04E2,1.135E3,6.84E2,3.96E2,1.08E2,9.65E2,1.7E2,6.14E2,7E1,1.77E2,2.19E2,4.3E1,6.5E1,6.19E2,3.46E2,1.41E2,2.9E1,2.24E2,3.9E2,3.4E1,3.6E1,1.29E2,4.8E1,1.72E2,4.7E1,3.9E1,4E0,1.6E1,4.9E1,5.71E2,4.8E1,2.55E2,9.1E1,1.04E2,3.7E1,9E0,2E1,1.71E2,5.3E1,3.61E2,2.9E1,2.5E1,9E0,2.7E1,9E0,8.1E1,4.8E1,3.4E1,1.4E1,5E1,1.22E2,7E0,4E1,7E0,3.2E1,3E0,1E0,4E0,1.2E1,3.5E1,1.4E1,3.22E2,2.49E2,4.1E1,7E0,1.33E2,1.22E2,3.6E1,5.5E1,7.1E1,3.3E1,1.4E1,2.3E1,6E0,3E0,9E0,1.1E1,5.7E1,1.14E2,1.5E1,3.8E1,3.48E2,1.3E1,8E0,2.1E1,1.8E1,7E0,3E0,6E0,9E0,1.8E1,5E0,4E0,2.2E1,5.9E1,3.3E1,1.5E1,6E0,2.8E1,1E0,1.3E1,4.7E1,3E0,1.01E2,2.1E1,5E0,2E0,8E0,3.2E1,1E0,6E0,8E0,2.4E1,3E0,1E0,9E0,3E0,1.5E1,2E1,1E0,1.3E1],"tree_param":{"num_deleted":"0","num_feature":"38","num_nodes":"123","size_leaf_vector":"1"}},{"base_weights":[3.1457813E-3,-8.073347E-2,2.029352E-1,-1.6856182E-1,8.166452E-3,1.2718667E-1,5.4522145E-1,-2.3496728E-1,-1.0223058E-1,-6.24857E-2,8.7651856E-2,8.56284E-2,4.1396192E-1,3.6720243E-1,7.8464776E-1,-1.9461727E-1,-3.1941792E-1,-1.54867E-1,4.0612496E-2,-1.3094443E-1,-1.952842E-2,-1.766446E-3,1.5978533E-1,1.2241345E-1,-2.0361236E-1,1.4002657E-1,6.35139E-1,-1.6652393E-1,4.354537E-1,9.026945E-1,3.1593406E-1,-2.3238198E-1,-1.0524667E-1,-9.104116E-2,-3.5499084E-1,-2.0616733E-1,-1.0743229E-1,-2.8745344E-2,